#include <stdint.h>
#include <math.h>
#include "userinterrupt.h"
#include "mylcd.h"

char deselogo[600];
int startpredict;

void (*activationfunction)(double *,double *,int);
void (*dActivationFunction)(double *,double *,int);
#define inputDimension 784
#define outputDimension 10
#define numberofHiddenUnits 20

const double hiddenWeights[numberofHiddenUnits][inputDimension]={
{0.00049539,0.00016332,0.00057843,0.00093458,0.00092351,0.00033363,0.00093657,0.000742,0.000969,0.0006281,0.0013087,0.00095796,0.0013859,0.00038732,0.0005356,0.0011968,0.00047515,0.0011064,0.00026473,0.00021437,0.0009855,0.0012587,0.001018,0.00039663,7.4687e-05,0.00070945,0.00013233,0.00093265,0.00040278,0.0012656,0.00024874,0.00049558,-4.0552e-05,0.00080716,0.00070854,-0.0010188,0.00024251,0.00083642,0.0014622,0.00093825,0.00017107,0.00091736,-0.0015759,-0.0032803,-0.0027434,-0.00066913,0.00069068,0.00045735,0.00054703,0.00024733,0.00016559,0.00040209,0.00046135,2.5976e-05,0.00045179,0.001074,0.00085264,0.0010535,0.00062251,0.00015,0.0013254,0.0011515,0.00027895,0.00061647,-0.0037761,-0.017075,-0.0050416,0.0016075,0.00091481,0.00018541,-0.00026696,-0.00063619,-0.0056046,-0.012268,-0.025283,-0.013777,-0.0064305,-0.0070585,-0.0030749,-0.0049352,-0.0055704,-0.00057913,0.00035012,0.00049417,0.0010963,0.00072544,0.0017436,0.0022599,0.0005275,-0.00073922,-0.0097,-0.021527,-0.028659,-0.025522,-0.023853,-0.022414,-0.021574,-0.021533,-0.01206,0.00029782,0.0045898,-0.015541,-0.035959,-0.029687,0.0003515,0.014495,0.0012389,-0.01681,-0.013779,-0.0011692,0.0006767,0.0010056,6.2944e-05,0.00078333,0.00066493,0.0010456,-0.0033433,0.0047505,0.0076904,-0.027676,-0.052311,-0.023071,-0.030713,-0.046387,-0.06082,-0.07389,-0.049908,-0.0077693,0.049049,0.10406,0.1039,0.067334,0.10948,0.040904,0.009599,-0.041527,-0.036069,-0.0043248,1.5212e-05,0.00014384,0.00019252,0.001169,0.0007832,-0.0030028,-0.0091806,-0.028811,-0.034974,-0.027845,0.025375,0.040598,0.0064599,-0.11289,-0.19569,-0.20591,-0.13836,0.043806,0.20675,0.2915,0.27671,0.15453,0.15,0.063703,0.044941,-0.063265,-0.059622,-0.010857,-0.0011516,0.0015597,9.7209e-05,0.00088555,0.00020582,-0.0058149,-0.0053626,-0.017728,-0.0050159,0.071308,0.079239,-0.031166,-0.093697,-0.21888,-0.36295,-0.35493,-0.16884,0.033461,0.21206,0.26648,0.24058,0.19362,0.17172,0.059207,-0.010119,-0.086189,-0.1185,-0.028866,-4.4863e-06,0.0019162,0.00042182,0.0008136,-0.00076991,0.0090361,-0.01872,0.02605,0.098885,0.11842,0.078761,-0.023461,-0.15798,-0.32493,-0.44566,-0.3751,-0.10623,0.085419,0.182,0.22499,0.22045,0.1473,0.15353,0.087036,0.04251,-0.12463,-0.1658,-0.075112,-0.0031793,0.0019805,0.00035788,0.00038986,-0.0076178,0.00743,0.0034146,0.090298,0.15439,0.17884,0.15837,0.0051302,-0.14887,-0.28209,-0.44967,-0.39469,-0.080759,0.11403,0.0867,0.10878,0.13974,0.078838,0.12349,0.14327,0.1208,-0.15512,-0.17872,-0.083011,-0.005678,0.0021003,0.00042658,-0.0020615,-0.011053,0.00065572,0.087157,0.17635,0.22852,0.21215,0.22272,0.11246,-0.075788,-0.33804,-0.52003,-0.34303,-0.00031827,0.068242,0.018873,0.1174,0.21603,0.20113,0.091518,0.20367,0.13933,-0.020388,-0.21719,-0.11307,-0.00063605,0.0010029,0.00015001,-0.0027859,-0.0081232,0.028279,0.10161,0.20442,0.19598,0.20332,0.24089,0.2252,-0.021702,-0.36548,-0.53943,-0.28945,-0.059391,-0.040008,0.070126,0.13109,0.25064,0.18519,0.19337,0.20954,0.090867,-0.063297,-0.22779,-0.13599,0.0096337,0.00075705,0.00061675,-0.0081644,-0.0061811,0.041138,0.13827,0.17321,0.051397,0.1829,0.16288,0.24835,-0.11259,-0.51322,-0.63359,-0.36707,-0.17383,-0.067533,0.00081207,0.098512,0.2519,0.23553,0.1903,0.17469,0.026176,0.025923,-0.20102,-0.14495,0.0082001,0.00037456,-0.0003642,-0.0076679,-0.015159,0.049906,0.11396,0.16988,0.066705,0.20834,0.21549,0.082297,-0.3432,-0.7811,-0.78671,-0.45772,-0.22773,-0.093006,-0.060045,0.082254,0.31275,0.2352,0.04631,0.0045109,-0.026123,-0.0059373,-0.17986,-0.12234,0.017331,0.0010222,-0.00018862,-0.0074525,-0.025954,0.083342,0.08425,0.23222,0.2355,0.2011,0.31651,0.098962,-0.3389,-0.73714,-0.74926,-0.38515,-0.061185,-0.020703,-0.064076,0.18252,0.25902,0.19902,0.0086722,-0.040397,-0.019895,-0.12541,-0.14761,-0.11121,0.014403,0.0015209,0.00017874,-0.0080215,-0.0047037,0.014788,0.083658,0.34187,0.26909,0.16906,0.28454,0.21027,-0.06213,-0.44541,-0.66119,-0.35232,-0.063092,-0.010609,-0.11327,0.087629,0.16048,0.022581,-0.053937,-0.044212,0.012422,-0.12824,-0.1374,-0.10747,0.010752,0.0021828,0.00051067,0.0025599,0.019387,0.015625,0.11949,0.3753,0.2222,0.091893,0.23653,0.22962,0.10163,-0.29201,-0.55981,-0.41881,-0.2049,-0.060564,-0.078681,-0.039235,-0.074391,-0.095309,-0.083231,-0.11286,-0.10041,-0.13565,-0.14164,-0.097879,0.0075314,0.0022861,3.4441e-05,0.011041,-0.028423,0.033141,0.10542,0.20378,0.13394,0.14019,0.10437,0.15442,-0.044986,-0.33453,-0.57648,-0.54394,-0.25789,-0.099772,-0.12872,-0.17295,-0.107,-0.050057,-0.077808,-0.10699,-0.067745,-0.062192,-0.14324,-0.073689,0.0031566,0.0012044,0.00038637,-0.0091533,-0.058621,-0.08255,-0.015663,0.075081,-0.018593,0.012075,0.13402,0.15524,0.078486,-0.2846,-0.38611,-0.37572,-0.33566,-0.17873,-0.10566,-0.10487,-0.056546,-0.06412,0.026759,-0.064539,-0.016114,-0.021523,-0.070551,-0.051684,0.0059723,0.0011832,0.0011064,-0.0040173,-0.066746,-0.14621,-0.076489,-0.015853,-0.036887,-0.028737,0.028069,0.16568,0.12473,-0.077904,-0.23975,-0.33771,-0.25964,-0.2496,-0.070261,0.018748,-0.052706,-0.0956,-0.010548,-0.013596,0.073293,0.039927,-0.028271,-0.052012,-0.0014991,-0.00020745,0.0001244,0.00075053,-0.047649,-0.12086,-0.049352,-0.05582,-0.0113,-0.015996,0.038443,0.075826,0.053245,0.048217,-0.044738,-0.16269,-0.17429,-0.14993,-0.016637,0.044435,-0.023513,-0.1656,0.029283,0.13073,0.10778,0.065281,-0.047189,-0.039846,-0.004745,0.00012012,3.2101e-06,-0.0030222,-0.036767,-0.099662,-0.026055,-0.0093252,0.066605,-0.013661,-0.049892,-0.08416,-0.026504,0.064107,0.043467,-0.065438,-0.017819,-0.078504,-0.084185,0.047747,-0.027288,-0.061459,0.06606,0.18654,0.1369,0.07467,-0.0095081,-0.028713,-0.0078855,-0.00063788,0.00051402,-0.0074286,-0.033507,-0.10439,-0.065524,0.04368,0.038529,-0.030363,-0.14387,-0.16775,-0.080827,-0.06961,-0.067592,-0.040199,0.019668,0.00046134,0.026468,0.07304,0.077599,0.05867,0.19757,0.2412,0.17861,0.11426,0.040231,-0.034174,-0.0084369,-0.00064441,0.00085499,0.00036192,-0.019307,-0.088415,-0.10712,-0.073594,-0.067226,-0.024747,-0.13089,-0.17461,-0.15122,-0.11671,-0.095037,-0.049265,-0.025553,-0.014,0.086574,0.13755,0.21081,0.21315,0.3212,0.31964,0.16533,0.14153,0.054326,-0.010452,-0.0025722,-0.0011515,0.00089248,0.00023754,-0.0058691,-0.055211,-0.070135,-0.10574,-0.19687,-0.22707,-0.21842,-0.17956,-0.080818,-0.066556,-0.07237,-0.058894,-0.05803,-0.010348,0.12864,0.21606,0.32048,0.30058,0.3386,0.2543,0.10381,0.051544,0.035298,-0.0024843,-0.00083698,0.00076929,0.0012548,9.7611e-05,-0.00018782,-0.015438,-0.047026,-0.075622,-0.15802,-0.22351,-0.26225,-0.19328,-0.058688,-0.024433,-0.041792,-0.066023,-0.034535,0.050613,0.16614,0.32773,0.31612,0.27102,0.23911,0.13949,0.068469,0.033894,0.029031,-0.00017742,4.3129e-05,0.00057524,0.0011471,6.0579e-05,0.00031601,-0.0022975,-0.010407,-0.028381,-0.073523,-0.11177,-0.13774,-0.11219,-0.069432,-0.026724,0.0037749,0.017645,0.065789,0.11356,0.19845,0.19517,0.15145,0.14031,0.099855,0.044662,0.010724,0.0086301,0.011805,0.00036003,0.0012159,0.00010732,0.00062955,0.00052049,0.00071573,-0.00035135,0.00060684,-0.0066996,-0.014582,-0.030223,-0.024393,-0.027061,-0.017304,-0.010517,0.0067281,0.028974,0.056238,0.059281,0.045381,0.051639,0.016704,0.032843,0.02322,0.0062581,0.0017011,0.0016887,0.00051708,0.00014035,7.7095e-06,0.00035805,0.00071557,0.00051422,0.0011304,0.00069593,0.00045263,0.00091749,-0.0033735,-0.0020811,-0.0041014,-0.00050044,-0.000674,-1.8296e-05,0.00083858,0.00027111,0.0010144,0.0045959,0.0017272,0.0054832,0.0037633,0.0023009,0.00029189,0.00064308,0.0002714,0.00052491,0.00078433,0.00035681,0.0011445,0.0010925},
{0.00019062,0.00064889,9.9002e-05,0.00010605,0.0011667,0.0011944,0.00022867,0.0003321,0.001318,0.00045355,0.00039031,0.0009474,0.0012036,0.0011405,-0.0006636,0.00039385,8.6553e-05,0.00056952,0.00045003,0.0011187,0.00065027,0.00021907,0.00068993,0.00095618,0.00096857,0.00058843,0.00089382,4.1491e-05,0.0012427,0.00089488,0.00080392,0.00025731,0.00052186,0.00073482,0.00022172,0.00067869,-0.00033116,0.00037914,-0.00038347,-0.00037969,-0.0012711,0.0018269,0.00047271,0.00055524,0.00043954,0.00064827,0.00056128,0.0003184,0.00091533,0.00052123,0.00061993,0.0011406,0.00017397,0.00098912,0.00079456,0.00089374,0.0010216,0.00010104,0.00062614,0.00076492,0.00071313,0.00083788,0.0008282,0.0040791,-0.0016435,-0.010404,-0.0055791,-0.0013578,0.002832,0.0022161,0.0015098,0.0016688,0.0029329,0.0037002,0.0023339,0.0042325,0.0055125,0.0071199,0.0039668,0.0035554,0.0029145,0.0014746,0.00066469,0.00089414,1.7421e-05,0.00097107,0.0026442,0.0051646,-0.00084313,-0.0015348,0.0073893,0.0098287,0.00090608,-0.02045,-0.014246,-0.0032118,-0.012075,-0.015302,-0.018706,-0.0095191,0.019303,0.041914,0.06468,0.069089,0.051647,0.040253,0.024548,0.0044661,-0.0082312,-0.0054512,3.2746e-05,0.00021725,0.00032483,2.8156e-05,0.0010958,0.0018568,-0.0031289,0.0050865,0.025758,0.024177,-0.0061908,-0.022642,-0.038894,-0.047222,-0.064725,-0.083377,-0.077767,-0.0041211,0.092739,0.13014,0.15731,0.17456,0.15949,0.1094,0.046776,-0.0045297,-0.035802,-0.023205,-0.0017367,0.00083745,0.00084135,0.0004436,0.0015262,0.0024178,0.0050165,0.023138,0.036783,0.03435,0.0021338,-0.039989,-0.077822,-0.12618,-0.12601,-0.078593,-0.046807,0.053899,0.16897,0.19865,0.19717,0.2165,0.23005,0.19043,0.12609,0.015521,-0.061947,-0.037803,-0.0073401,0.00065455,0.00118,0.0074264,0.012421,0.017059,0.037933,0.050089,0.046202,0.028479,-0.023803,-0.12699,-0.19569,-0.26487,-0.23123,-0.15692,-0.038407,0.036861,0.15196,0.20108,0.12977,0.15662,0.22224,0.21598,0.15865,0.031495,-0.074866,-0.06404,-0.013918,0.00039751,0.00011686,0.02541,0.025385,0.032527,0.072158,0.080269,0.071456,-0.025865,-0.13047,-0.16618,-0.27276,-0.33158,-0.26648,-0.16747,0.0034527,0.090721,0.088063,0.1203,0.066166,0.12338,0.17571,0.19487,0.11334,0.0023265,-0.13268,-0.14865,-0.024295,-0.00044206,0.00069197,0.021445,0.03787,0.073785,0.12088,0.087395,0.067226,-0.12113,-0.2246,-0.24261,-0.31426,-0.29057,-0.24993,-0.21221,-0.0036688,0.033809,-0.076983,0.0058271,0.097466,0.2112,0.16512,0.20137,0.17101,0.023163,-0.12375,-0.14694,-0.038566,-0.00062445,0.00066606,0.010727,0.048922,0.11697,0.16721,0.14457,0.049187,-0.15095,-0.1929,-0.24251,-0.32868,-0.30359,-0.28424,-0.17217,-0.020685,-0.031123,-0.16641,-0.068244,0.15587,0.3448,0.2515,0.23439,0.19567,0.043322,-0.06528,-0.1462,-0.042034,-0.0013889,0.00025203,0.017111,0.093396,0.16974,0.22536,0.18026,0.020069,-0.24447,-0.16271,-0.1803,-0.19326,-0.25096,-0.37372,-0.26676,-0.035954,0.02464,-0.02597,-0.010594,0.32551,0.4659,0.36554,0.22745,0.095397,-0.040368,-0.14545,-0.18517,-0.041862,-0.0022467,0.00069321,0.0073063,0.087336,0.21922,0.22412,0.21034,-0.021822,-0.13659,-0.093361,-0.071905,-0.1429,-0.31124,-0.36607,-0.26937,-0.033789,-0.038264,-0.10393,-0.081119,0.31361,0.52396,0.3832,0.19109,-0.022697,-0.074911,-0.17365,-0.23877,-0.066268,-0.0020564,0.0032078,0.023234,0.11971,0.26731,0.2385,0.2585,0.11721,5.7836e-05,-0.007695,0.00072121,-0.10328,-0.19219,-0.1866,-0.1021,-0.12366,-0.22953,-0.33614,-0.29219,0.18149,0.47811,0.30789,0.14402,-0.078467,-0.13132,-0.096985,-0.23724,-0.054079,-0.0034096,0.0056956,0.031601,0.14388,0.31779,0.26956,0.3651,0.1893,-0.054472,0.069952,0.10084,0.054597,-0.0055583,-0.0093332,0.012948,-0.092008,-0.16034,-0.25696,-0.23789,-0.0098718,0.29926,0.33352,0.21693,-0.0668,-0.14978,-0.16871,-0.27607,-0.061955,-0.0062427,0.0012469,0.024265,0.15807,0.34092,0.25603,0.34748,0.017493,-0.095608,0.094754,0.26395,0.26334,0.23578,0.095869,0.032938,-0.041295,-0.020434,-0.091186,-0.2133,-0.056738,0.23114,0.41538,0.24706,0.012264,-0.14253,-0.21878,-0.26269,-0.054764,-0.005479,0.00034569,0.021033,0.14181,0.29811,0.18071,0.26712,-0.048644,-0.10897,0.040981,0.21107,0.14324,-0.014704,-0.10871,-0.096607,-0.12688,-0.13127,-0.1918,-0.22573,0.017552,0.32582,0.3133,0.21656,0.026458,-0.06857,-0.21619,-0.221,-0.035552,-0.0043991,0.00076256,0.029031,0.11154,0.19842,0.059307,0.16268,-0.022445,-0.12752,-0.066479,0.04761,-0.12385,-0.23189,-0.25306,-0.19839,-0.23844,-0.29831,-0.35201,-0.13075,0.24374,0.36009,0.23828,0.13548,0.041719,-0.092843,-0.21268,-0.14008,-0.031864,-0.0041956,0.0011443,0.014597,0.065321,0.1234,0.025909,0.16496,-0.035932,-0.1377,-0.12903,-0.19305,-0.21407,-0.24345,-0.19246,-0.1906,-0.37021,-0.34118,-0.23271,0.047461,0.20147,0.20614,0.12598,0.099424,0.06334,-0.05768,-0.15168,-0.10738,-0.027413,-0.0042211,0.00028839,0.018374,0.078218,0.057574,0.11514,0.16618,0.0019127,-0.15884,-0.20314,-0.20407,-0.21348,-0.17286,-0.15282,-0.14762,-0.11077,-0.12152,-0.058921,0.059625,0.17505,0.15328,0.19177,0.142,-0.012242,-0.06701,-0.11159,-0.080594,-0.020576,-0.00098603,0.0011686,0.024005,0.033691,0.022258,0.10726,0.17042,0.010532,-0.17491,-0.22762,-0.28142,-0.24208,-0.0080323,-0.030301,-0.0086594,-0.0060776,0.07171,0.062675,0.071864,0.084213,0.12712,0.12581,0.038125,-0.057873,-0.1044,-0.11124,-0.058938,-0.011007,-0.0007398,0.0010037,0.0068774,0.017335,0.055456,0.095195,0.095774,0.028476,-0.14703,-0.19434,-0.27603,-0.10632,0.099349,0.090564,0.023986,0.070575,0.13813,0.089797,0.14576,0.13696,0.22075,0.1288,-0.022714,-0.088097,-0.14616,-0.10823,-0.051172,-0.010677,0.0004063,0.00109,0.0029753,0.01899,0.037406,0.037467,0.021204,-0.0016563,-0.12347,-0.28326,-0.31287,-0.046661,0.14389,0.11334,0.14881,0.15103,0.12099,0.11248,0.18889,0.25659,0.25345,0.11296,-0.0040329,-0.07446,-0.090815,-0.065038,-0.050574,-0.015399,-0.00036385,0.00031262,0.0011538,0.0099157,0.034964,0.0076849,-0.064705,-0.14565,-0.22881,-0.34661,-0.29208,-0.04975,0.18335,0.21253,0.20003,0.14082,0.18009,0.22418,0.22222,0.25108,0.22621,0.14013,0.024595,-0.02831,-0.016616,-0.015358,-0.014069,-0.0037765,-0.0014597,0.000718,0.00076563,0.0032384,0.033483,-0.020871,-0.13904,-0.28891,-0.33263,-0.37593,-0.28731,-0.039092,0.17108,0.24758,0.2497,0.18713,0.19065,0.15242,0.1665,0.20346,0.17912,0.12998,0.062324,0.0022763,-0.0091273,-0.0032536,-0.0058591,-0.00064033,0.00044699,0.00015407,0.00037487,0.0018088,0.016935,-0.021191,-0.11259,-0.23985,-0.28428,-0.32141,-0.29603,-0.1088,0.066421,0.16789,0.15251,0.11385,0.11966,0.096864,0.14246,0.11161,0.10513,0.084261,0.050233,0.02267,0.010579,0.0063285,-0.0015755,0.001187,0.00059422,0.00040415,0.00064412,0.00020006,0.0023778,-0.0062905,-0.051572,-0.12054,-0.1387,-0.16372,-0.16224,-0.079753,-0.0028181,0.018635,0.027542,0.034836,0.026983,0.05341,0.062519,0.052412,0.031953,0.030393,0.020649,0.0043816,0.0012541,0.0014354,0.00016157,6.333e-05,2.3107e-05,0.00087408,0.00049345,0.00081213,0.004202,0.00013739,-0.0069673,-0.02202,-0.021761,-0.030289,-0.033099,-0.023613,-0.015179,0.015669,0.016639,0.013056,0.003418,0.010071,0.0087551,0.0054957,0.003607,0.0021168,0.0036513,0.00069358,0.00090953,0.0011203,0.00041523,0.00038024,5.2956e-05,0.00091155,0.00073331,0.00083315,0.0011092,0.0012047,-0.0012769,-0.0046362,-0.0027186,-0.0021526,-0.00037022,-0.0017085,0.00076426,0.00030179,7.6711e-05,0.00060646,0.00096722,0.00063519,0.0020332,0.0014689,8.9088e-05,0.0010503,0.00081309,0.00075654,0.00035435,1.6489e-05,0.00064267,0.0011154,0.00059662},
{0.00033423,0.0011591,0.0010678,0.00045384,0.00033275,0.0002386,0.00042664,0.000708,0.0014951,0.00030766,0.0017413,0.0010642,0.0020773,0.00059256,0.00076015,0.0010727,0.00045349,0.00040085,0.0011536,0.00031897,0.00027627,0.001141,0.00051998,0.00072161,0.00010749,0.00085414,0.00083726,0.0010148,1.8596e-05,7.9436e-05,0.00033661,0.000475,0.00049098,8.5502e-05,0.00065879,0.00011815,0.0037767,0.0073969,0.0071159,0.0085481,0.010363,0.0058748,0.002534,0.00054948,-8.2533e-05,0.00010932,0.00047299,0.0040269,0.00043261,0.00041351,0.00043926,0.00059406,0.00013108,7.3581e-05,0.00089978,2.0604e-05,0.00033957,0.00047915,0.00012516,0.00096255,0.00097724,0.0011841,0.0035575,0.0015006,0.013969,0.027328,0.028934,0.033393,0.024282,0.011999,0.013148,0.0043249,-0.0052997,-0.0027738,-0.0030303,-0.0016598,-0.004365,-0.0076315,-0.005791,-0.0054941,-0.0053233,-0.00092869,2.93e-05,0.00088362,0.00078702,0.0005505,0.00034585,0.0018084,0.0024874,0.0026457,0.00095169,0.0090924,0.034713,0.056947,0.051506,0.033489,0.022041,0.0027502,-0.0039067,-0.00027336,-0.015582,-0.034199,-0.050656,-0.054249,-0.057999,-0.049749,-0.031726,-0.016052,0.00031231,0.0070686,8.8322e-05,0.00045785,0.0012424,0.00058725,0.0010211,0.0013178,0.0021598,-0.00061233,-0.017255,0.0036949,0.032944,0.069476,0.075064,0.057823,-0.0015152,-0.033496,-0.039808,-0.031419,-0.040032,-0.033758,-0.031724,-0.052152,-0.061389,-0.06336,-0.060158,-0.014382,0.019215,0.024821,-0.0037785,0.00066863,0.00013894,0.00017592,0.00044953,-0.0011888,-0.0092518,-0.023942,-0.016994,0.020954,0.054327,0.097175,0.099053,0.038747,-0.014494,-0.036119,-0.050225,-0.041472,-0.011972,0.058741,0.028019,-0.018356,-0.00099778,-0.0078895,-0.0095549,0.014039,0.038907,0.021363,0.013337,0.0022236,0.00083214,0.00081126,-0.0013879,-0.0053483,-0.025458,-0.044171,-0.015711,0.053592,0.076196,0.10977,0.074004,0.0097286,-0.028499,-0.072701,-0.058098,-0.032567,-0.0092038,0.073137,0.072666,0.070939,0.024312,0.0064882,0.040432,0.066494,0.053378,0.020807,0.015122,0.0039529,0.0007416,0.00035832,0.00022169,-0.013302,-0.042642,-0.050571,-0.0029477,0.089492,0.13938,0.11715,0.10714,0.039879,0.018981,0.017782,0.02808,0.02908,0.024601,0.0343,0.094841,0.15056,0.056253,0.013714,0.062519,0.076694,0.058555,0.040159,0.0042471,0.0087661,0.00079648,0.00014685,-0.0030913,-0.024031,-0.059266,-0.059644,0.012488,0.093516,0.12464,0.049107,-0.013632,-0.010278,0.078103,0.091163,0.079139,-0.00038934,-0.063878,-0.031796,-0.018705,0.095318,0.10991,0.040543,0.055551,-0.0083624,0.017769,0.022039,0.0084007,0.01452,0.00052162,-8.7954e-06,-0.0079816,-0.037096,-0.060184,-0.089431,-0.0066205,0.093809,0.10894,0.10677,0.064397,0.061832,0.07515,0.14426,0.099503,0.018753,-0.092655,-0.039189,-0.034562,0.072522,0.14911,0.076624,0.034961,0.046524,-0.025376,-0.020107,-0.034117,0.0034613,0.00097691,-0.00055894,-0.0058843,-0.031326,-0.076561,-0.099656,0.018354,0.086311,0.17616,0.15983,0.16882,0.18852,0.20715,0.1855,0.093867,-0.009187,-0.13232,-0.099073,-0.089359,0.05247,0.16091,0.11518,0.028295,0.10362,-0.011284,-0.036275,-0.038173,0.00043711,0.00036893,0.00079271,-0.0074573,-0.037786,-0.092394,-0.11267,-0.017991,0.13798,0.16986,0.27044,0.28788,0.2449,0.22442,0.11093,-0.099738,-0.22146,-0.29921,-0.27965,-0.21306,0.014225,0.1465,0.16006,0.079854,0.082085,-0.036318,0.0057988,0.0078337,0.00085013,0.0007026,0.0013483,-0.013589,-0.064343,-0.11636,-0.14291,-0.045574,0.077192,0.12883,0.22618,0.23423,0.15874,0.025642,-0.16691,-0.36195,-0.47347,-0.47801,-0.3982,-0.29592,-0.028336,0.16474,0.12633,0.094566,0.077463,0.020384,0.062962,-0.0066741,-0.007768,0.00069466,0.0013606,-0.017426,-0.074338,-0.11114,-0.13527,-0.138,-0.10673,-0.02298,0.098429,0.26858,0.069251,-0.2995,-0.5652,-0.61553,-0.55485,-0.45477,-0.28899,-0.16661,0.034816,0.062017,0.047379,0.12369,0.084149,0.020606,0.035616,0.042506,0.009131,0.00035632,0.0014167,-0.024976,-0.085615,-0.088181,-0.1149,-0.28076,-0.28964,-0.126,0.087439,0.20491,-0.19578,-0.58209,-0.69899,-0.54379,-0.38302,-0.28467,-0.11223,-0.037278,0.035342,-0.04788,-0.0022896,0.057507,0.085659,0.039509,0.03364,0.018269,0.0026217,0.0011027,0.0013802,-0.020447,-0.078097,-0.090756,-0.096121,-0.3682,-0.43103,-0.16687,0.037237,0.15942,-0.22792,-0.44552,-0.50449,-0.31709,-0.20199,-0.14263,-0.041911,-0.022795,-0.057554,-0.052634,-0.029464,0.077973,0.0913,0.057527,0.068934,0.056713,0.018602,0.00067777,0.00062696,-0.013641,-0.061567,-0.08271,-0.13046,-0.34849,-0.35613,-0.12507,0.11813,0.22256,-0.017803,-0.13227,-0.21186,-0.17537,-0.15268,-0.12245,-0.071238,-0.057401,-0.075094,-0.12533,-0.062068,0.013458,0.035214,-0.0077191,0.063918,0.097565,0.023398,7.247e-05,0.00081967,-0.0088895,-0.035919,-0.042171,-0.06164,-0.16655,-0.11983,0.012129,0.25266,0.32779,0.14208,0.0008392,-0.11582,-0.15444,-0.095475,-0.011859,0.007764,-0.038508,-0.12853,-0.084237,-0.046327,0.0084881,0.010503,0.017731,0.066256,0.091334,0.016112,0.0010579,0.00075084,-0.0068331,-0.031378,-0.036857,-0.0046351,-0.05907,0.070956,0.17458,0.36108,0.3532,0.19,-0.037061,-0.27056,-0.27031,-0.11802,0.032984,0.029895,-0.06735,-0.11478,-0.073414,-0.033753,-0.022203,-0.032404,-0.047385,0.0068965,0.022754,0.00072587,0.00042495,0.00093688,-0.0073986,-0.019112,-0.033163,-0.038378,0.013768,0.08761,0.17704,0.32118,0.29115,0.039098,-0.20135,-0.34413,-0.28241,-0.090576,0.037651,-0.054735,-0.096062,-0.099535,-0.10895,-0.10512,-0.06892,-0.11285,-0.095283,-0.045371,0.0050086,-0.0028959,0.00038039,0.00066949,-0.0075913,-0.011286,-0.055422,-0.0085658,0.046123,0.097302,0.18349,0.19903,0.16426,-0.019536,-0.18745,-0.24331,-0.081853,0.060183,0.058371,-0.0092974,-0.096859,-0.13304,-0.11995,-0.062213,-0.089427,-0.12258,-0.097265,-0.054808,-0.025237,-0.0054235,0.00022911,0.0010421,-0.0064356,-0.014981,-0.024232,0.058297,0.16052,0.15519,0.16104,0.20774,0.1441,-0.0027644,-0.12421,-0.084422,0.086329,0.16638,0.0812,-0.0045489,-0.041146,-0.06654,-0.045393,-0.034214,-0.075242,-0.088204,-0.083454,-0.05028,-0.028193,0.00043209,0.00013328,0.0011045,-0.0026491,-0.025839,-0.0063579,0.067535,0.18685,0.20268,0.17904,0.17594,0.12553,0.0014055,-0.00052539,0.049568,0.11529,0.12533,0.026865,0.0067144,-0.025666,-0.04842,-0.078038,-0.071791,-0.056901,-0.07259,-0.057987,-0.034399,-0.015124,-0.0036363,0.00026553,1.3139e-05,0.00020154,-0.0095151,0.0066368,0.051832,0.13579,0.17116,0.21486,0.17328,0.094184,-0.016162,-0.0035106,0.051322,0.092775,0.080723,0.031335,-0.016748,-0.04625,-0.05111,-0.055021,-0.038141,-0.0339,-0.039056,-0.035357,-0.014285,-0.0060955,0.00086615,0.00079296,0.00075779,0.0010477,-0.0014562,0.001515,0.016458,0.063835,0.090101,0.097231,0.093935,0.040633,-0.023796,0.0014442,0.01295,0.030207,0.036516,0.014122,-0.0050837,-0.012089,-0.0098771,-0.013564,-0.0038561,0.00068513,0.00022584,-0.013944,0.0007075,0.00091951,0.00086917,0.00045071,0.001272,0.0006093,-0.00054519,-0.0019426,-0.0010518,0.012906,0.033865,0.045108,0.033433,0.011797,-0.0051841,-0.012219,-0.013058,-0.0015673,0.0062812,-0.0011221,-0.0021182,-0.003472,0.00047447,-0.0018001,0.0018684,0.0022267,0.0018719,-0.0043676,0.00040272,0.00034873,0.00048991,0.00013419,0.00099876,0.00014728,0.00098168,0.00062423,0.0010625,0.0051767,0.0075064,0.0053888,-0.0039596,0.0062511,0.0012405,0.00044933,0.00085267,0.00087027,0.0027383,0.0001365,-0.0014767,-0.00085337,-0.0011685,0.00013509,0.00086308,0.00039617,0.0011096,0.00060002,0.00067065,0.00035905,0.00056603,0.00053619,0.00045774,0.00018035,0.0012185,0.0012017,0.00074361,0.00021171,0.0011697,0.00036888,0.001141,0.00082716,0.00059143,0.001078,0.00042101,0.00010449,2.1093e-05,0.00043947,0.00029377,0.00064841,0.00096918,0.00039353,0.00063727,0.0010752,0.00088661,0.00034473,0.00054988,0.00071008,6.3444e-05},
{2.4063e-05,0.0011948,0.00069409,0.00073297,0.0010005,0.00055526,0.00079744,9.8519e-05,0.00025704,0.00092025,0.0012131,0.001019,0.002134,0.00086804,0.00054003,0.0001196,0.00052738,0.00051014,0.0021684,0.00073591,1.2242e-05,0.00024185,0.00018757,0.00019804,0.0006417,0.0010836,7.6646e-05,0.00038531,0.00071951,6.9879e-05,0.00041317,0.00020377,0.00061119,0.00013071,-4.5894e-05,-0.00044877,0.0053664,0.0075458,0.0059578,0.0087068,0.01079,0.0044812,0.0029328,0.0011021,-0.0018377,0.00069208,0.0006467,0.00075307,-0.00022691,-0.00058352,3.4749e-05,0.00054018,0.00078915,0.00061651,0.00057468,0.00030919,0.0012364,0.00069927,0.00019212,0.0012119,0.0012625,0.0010353,0.0051667,0.0059653,0.014458,0.030934,0.028434,0.035839,0.026742,0.01142,0.011813,0.0051356,-0.0031798,-0.0020658,-0.0037256,-0.0047413,-0.0051662,-0.0062385,-0.0060796,-0.0062215,-0.0084916,-0.00053488,0.0012737,0.0004818,0.0003916,0.00028521,0.00042534,-0.00013196,0.0024963,0.0039248,0.0063862,0.033046,0.048438,0.076538,0.07954,0.065809,0.04634,0.032493,0.025077,0.013437,-0.020823,-0.032332,-0.028475,-0.033072,-0.036504,-0.030029,-0.024833,-0.018069,-0.0053428,0.0069476,-0.00018889,0.00075852,0.00067126,0.00083551,0.00017338,0.00022526,0.0036924,0.0038649,-0.002937,0.043859,0.077961,0.096616,0.099965,0.10788,0.081722,0.056684,0.032515,-0.0083758,-0.049525,-0.063944,-0.067948,-0.084186,-0.089616,-0.05664,-0.012116,0.014038,0.016599,0.03528,0.00077099,0.0009898,0.00065609,0.00063555,0.0010874,-0.0007078,-0.0042623,-0.0029893,0.012341,0.049367,0.047505,0.10316,0.10616,0.036507,-0.018572,-0.055508,-0.096471,-0.11796,-0.10365,-0.098103,-0.14636,-0.17713,-0.15072,-0.061562,0.057295,0.086137,0.082926,0.044633,0.02507,0.0006459,0.00083603,0.0011319,-0.0001073,-0.0029685,-0.01407,-0.031624,0.016805,0.061444,0.082475,0.10195,0.099723,0.010862,-0.046657,-0.083108,-0.096634,-0.10912,-0.13379,-0.17771,-0.25682,-0.26844,-0.21414,-0.08559,0.05135,0.17432,0.11964,0.059759,0.027711,0.0017706,0.00042181,0.00071487,-0.00010138,-0.0079285,-0.026012,-0.056071,-0.025355,0.072691,0.12305,0.06147,0.07883,0.04363,0.036148,-0.037804,-0.11065,-0.16562,-0.14823,-0.20864,-0.24912,-0.27404,-0.23524,-0.11091,0.075618,0.16661,0.10093,0.11923,0.020141,0.011017,0.0011234,-0.00049019,-0.0026642,-0.018312,-0.045196,-0.090533,-0.02938,0.061356,0.062568,-0.025762,-0.060771,-0.021068,0.067728,-0.038928,-0.19578,-0.36024,-0.32914,-0.19097,-0.22107,-0.2314,-0.16006,-0.09135,-0.024479,0.048335,0.020734,0.12987,0.059835,0.018019,0.00022242,-0.00095356,-0.0055269,-0.024187,-0.080087,-0.15572,-0.096532,0.023532,0.022045,0.036357,-0.054754,0.022198,-0.0067676,-0.18401,-0.37229,-0.47481,-0.34907,-0.14739,-0.12506,-0.12225,-0.085119,-0.091624,-0.088614,-0.0027125,-0.034684,0.092645,0.043991,0.0085618,0.00094921,1.6586e-06,-0.0049863,-0.036005,-0.12435,-0.22581,-0.082085,0.071116,0.040258,0.017657,-0.034048,-0.10614,-0.29085,-0.48569,-0.56041,-0.41767,-0.2633,-0.1167,-0.11468,-0.05787,-0.050884,-0.05335,-0.08395,-0.011376,-0.069162,0.096715,0.044662,0.002668,0.0012524,0.00059995,-0.0062134,-0.058635,-0.12343,-0.22863,-0.083103,0.01898,0.03671,-0.055702,-0.12289,-0.20165,-0.50291,-0.75012,-0.66688,-0.24678,-0.13613,-0.065044,-0.021658,0.004612,-0.061246,-0.097264,-0.16149,-0.082773,-0.072144,0.17911,0.11603,0.0016939,0.0008421,-0.00073938,-0.006676,-0.07369,-0.09563,-0.2482,-0.10723,0.040367,-0.011827,-0.087563,-0.08711,-0.17895,-0.4978,-0.6673,-0.41354,-0.09893,-0.026529,0.074993,0.079503,0.049352,-0.018325,-0.10588,-0.1762,-0.12652,-0.030196,0.20201,0.062239,0.0043157,0.00064544,-4.4668e-05,-0.0073337,-0.07642,-0.067466,-0.23418,-0.098052,-0.024046,-0.071404,-0.044633,0.1877,0.052019,-0.2897,-0.41781,-0.22659,0.027881,0.13401,0.27237,0.22178,0.17442,0.081035,-0.056804,-0.12816,-0.14649,-0.09929,0.1092,0.072335,0.023572,0.00050294,-0.00017506,-0.011375,-0.076645,-0.043567,-0.21288,-0.16497,-0.12667,-0.056884,0.18296,0.45876,0.42721,0.096999,-0.072064,0.017349,0.10462,0.11635,0.28969,0.25716,0.19864,0.10036,-0.02197,-0.037882,-0.12153,-0.13922,0.064576,0.047018,0.021852,4.8073e-05,0.00017758,-0.0095681,-0.066122,-0.04833,-0.23566,-0.27011,-0.21603,-0.021128,0.24898,0.55095,0.48443,0.20987,-0.021606,0.019808,0.067577,-0.0025433,0.058972,-0.01884,-0.039199,-0.087296,-0.059515,-0.016691,0.0028353,-0.055303,0.11532,0.062492,0.024768,0.00014407,0.0024656,-0.010466,-0.058373,-0.058599,-0.27607,-0.20511,-0.073971,0.042201,0.25932,0.44107,0.27156,0.111,-0.076502,-0.05801,-0.0088323,-0.066161,-0.13788,-0.2248,-0.17014,-0.18219,-0.13256,-0.0017276,0.026004,0.0028451,0.15097,0.1223,0.029222,0.00093612,0.00081876,-0.017617,-0.064693,-0.080848,-0.3471,-0.22668,0.054931,0.153,0.21739,0.20306,0.060172,0.0010651,-0.07088,-0.0033481,0.14029,0.043878,-0.1255,-0.1932,-0.26229,-0.23063,-0.19918,-0.06229,-0.0082188,0.033616,0.13774,0.12465,0.025133,0.0006743,3.4956e-05,-0.013042,-0.08193,-0.019272,-0.23473,-0.20316,0.027602,0.12987,0.16216,0.12683,0.090898,0.025316,-0.077082,0.10712,0.19368,0.036778,-0.10987,-0.24253,-0.3348,-0.33181,-0.30017,-0.21352,-0.14456,-0.070733,0.039105,0.051369,0.014513,0.0004558,0.00040912,-0.015352,-0.068362,0.04814,-0.10617,-0.1145,0.1269,0.16308,0.15609,0.15046,0.050135,-0.05798,-0.058021,0.11098,0.13816,0.0072734,-0.14225,-0.2585,-0.31599,-0.34396,-0.34584,-0.29749,-0.22688,-0.14964,-0.024932,-0.00041918,0.0047065,0.00082834,-0.00065297,-0.0125,-0.048768,0.086001,0.04491,-0.013544,0.16084,0.12524,0.046168,0.063202,0.059851,-0.0089139,-0.0080705,0.13257,0.19173,0.058428,-0.098311,-0.24587,-0.33443,-0.32691,-0.27142,-0.2535,-0.18866,-0.10762,-0.035101,-0.021733,-0.0023706,0.00024038,0.00038097,-0.0054128,-0.026735,0.080662,0.077457,0.0068688,0.044767,-0.0087203,0.0038386,0.027001,0.019839,-0.036142,-0.0016354,0.15541,0.20227,0.034389,-0.11344,-0.23016,-0.28231,-0.25096,-0.1764,-0.15895,-0.14504,-0.093697,-0.02421,-0.0099584,0.0041818,0.00046529,7.1608e-05,-0.0019119,-0.0098816,0.047143,0.071478,-0.019067,-0.043386,-0.038908,0.0020026,0.040506,-0.031667,-0.071948,-0.083919,0.064384,0.053704,-0.07814,-0.14321,-0.19944,-0.22865,-0.20027,-0.12237,-0.092852,-0.08943,-0.068254,-0.023736,-0.010512,0.0038365,0.00010152,0.00043231,0.00061704,-0.0060731,0.014443,0.021547,-0.033687,-0.029992,-0.041892,-0.06555,-0.060577,-0.091316,-0.081243,-0.087396,-0.035124,-0.012016,-0.090571,-0.11561,-0.15472,-0.15377,-0.12372,-0.059302,-0.048295,-0.047662,-0.038258,-0.01374,-0.0072162,0.0024315,0.00038464,0.00041408,0.0012085,-0.0019564,-0.0054973,-0.011583,-0.061096,-0.068427,-0.06889,-0.091451,-0.060578,-0.066002,-0.046707,-0.045958,-0.040066,-0.034511,-0.060819,-0.072586,-0.080393,-0.074157,-0.046375,-0.013471,-0.0074318,-0.0052199,-0.013381,-0.00019351,6.2819e-05,0.00062924,0.00096463,0.00050188,0.0012574,6.3806e-06,-0.0010304,-0.015226,-0.037994,-0.047676,-0.044529,-0.038034,-0.017761,-0.0073844,0.0059573,0.0068824,0.010398,0.0040756,-0.014464,-0.018118,-0.024002,-0.020923,-0.014912,-0.00492,-0.0012565,0.001056,-0.0039041,0.0010448,0.00044481,0.0004599,0.00039688,0.00085518,0.00091777,0.00078795,0.00087096,-0.0076499,-0.0047647,-0.0092309,-0.015631,-0.015774,-0.0066826,-0.0085669,0.006197,0.0092497,0.0047632,0.0012089,-0.00016335,-0.0042766,-0.0034722,-0.0076922,-0.0046533,-0.00014219,0.0011228,0.0017488,0.00060067,0.00020086,0.00094834,0.0010555,0.00078923,0.00093847,0.00057931,0.00089618,0.00025858,0.00026056,0.00094175,6.4169e-05,-0.0012847,0.0013163,0.0010991,0.00074856,0.0009811,0.00021463,0.00053974,0.00063454,-0.00039155,-0.0013886,0.00044325,7.5602e-05,0.00020129,0.00029389,0.00053623,0.00016176,0.00017558,7.2036e-05,0.0011893,0.00048348},
{0.00083902,9.8855e-05,0.001207,0.00065278,0.00031898,0.0012738,0.00070739,0.0006368,0.0011999,0.00048184,0.0013696,0.00090592,0.0013779,0.00064098,0.00026498,-6.6375e-05,0.00078446,0.00015268,0.0015149,0.0009581,0.001077,0.0007857,0.00049889,0.00016098,0.0009312,0.00043958,0.0012043,0.00084119,0.0012143,0.0011938,0.00013572,0.00056957,0.00045735,0.0012559,0.0012081,0.0020998,0.0055471,0.0086705,0.0072198,0.0062132,0.0077171,0.011265,0.0091062,0.0024909,0.0033195,0.00181,0.0013207,0.0036718,0.0015273,0.0015218,0.00061357,0.00099385,0.00069457,0.0011117,0.0010887,0.00031918,0.00063685,6.8315e-05,5.7445e-05,0.00086206,0.0001181,0.0010958,0.0030834,0.0042427,0.013152,0.034862,0.030829,0.031991,0.030316,0.017486,0.015706,0.0065039,0.0098348,0.021235,0.019347,0.014694,0.0093173,0.0099049,0.0057683,0.0015144,0.00051992,0.00037856,4.7868e-05,0.00028019,8.1252e-05,0.0011381,0.00046534,0.0019209,0.0015278,0.0027979,0.01832,0.050685,0.066889,0.08928,0.094638,0.070139,0.051542,0.025221,0.0062334,0.01358,0.018161,0.057474,0.087977,0.095142,0.094067,0.059077,0.035806,0.018579,0.01886,0.0077603,0.00083075,0.00081745,0.00090418,0.00085313,0.00022374,0.00067009,0.0036295,0.01389,0.055888,0.12807,0.16292,0.15355,0.10433,0.053772,0.020449,-0.0083774,-0.016359,0.010139,0.032448,0.06554,0.1084,0.14304,0.13239,0.14104,0.094647,0.080778,0.070077,0.033641,0.0015328,0.001737,9.2018e-05,0.0010177,0.00070592,0.00076194,0.011016,0.049112,0.1403,0.2225,0.2177,0.16492,0.084762,-0.030308,-0.057414,-0.050333,-0.052608,-0.024615,0.010806,0.050992,0.036953,0.086459,0.093164,0.10565,0.13836,0.1584,0.12883,0.042824,0.018054,0.0024073,0.00091597,0.00022513,-0.0010659,-0.001566,0.0076241,0.079204,0.21106,0.28349,0.20303,0.11688,-0.031179,-0.19677,-0.23311,-0.17804,-0.077757,-0.038991,-0.022382,-0.022416,-0.073304,-0.060498,-0.043387,0.008951,0.10638,0.24317,0.23891,0.078439,0.032163,0.0041879,0.00079089,0.00048068,0.0067096,0.011928,0.040794,0.11375,0.2121,0.28096,0.22379,0.047476,-0.14258,-0.31958,-0.33423,-0.16366,-0.044802,-0.045735,-0.011767,-0.082272,-0.14743,-0.089542,-0.069698,0.0044208,0.11965,0.2485,0.31373,0.15531,0.038825,0.011791,0.00042314,0.00060576,-0.0024622,-0.00012297,0.069886,0.15272,0.2988,0.29152,0.086869,-0.1251,-0.26633,-0.35964,-0.28101,-0.12192,-0.024785,-0.12013,-0.17899,-0.27445,-0.36777,-0.29901,-0.12455,0.063027,0.151,0.17288,0.25006,0.16641,0.053617,0.018992,0.00037357,-0.00023222,-0.0068937,-0.0030602,0.088213,0.16724,0.27971,0.16784,-0.025693,-0.065342,-0.20067,-0.28136,-0.23918,-0.077344,-0.045953,-0.15364,-0.30968,-0.36742,-0.46107,-0.32378,-0.043713,0.0047589,0.24322,0.26363,0.1799,0.13843,0.025207,0.0084948,0.00048931,-0.00021655,-0.0014825,0.018424,0.13763,0.1247,0.24613,0.10437,0.070727,-0.10454,-0.26203,-0.26896,-0.19091,-0.14053,-0.080886,-0.13045,-0.30658,-0.45586,-0.46623,-0.2675,-0.029689,0.09958,0.23403,0.30159,0.17576,0.14503,0.020134,0.0029627,0.00062168,0.0017819,-0.0043313,0.060143,0.11691,-0.0034605,0.16538,0.15374,0.032862,-0.091567,-0.18796,-0.16384,-0.086169,-0.12659,-0.22185,-0.19803,-0.31931,-0.53076,-0.55687,-0.25195,-0.012937,0.12468,0.19383,0.14946,0.11655,0.193,0.037363,0.0013724,0.00081072,0.0015924,-0.010259,0.077085,0.089178,0.018517,0.13423,0.25743,0.14129,0.024117,-0.12969,-0.18161,-0.099712,-0.20809,-0.2838,-0.2889,-0.34441,-0.62016,-0.65924,-0.22928,-0.033672,0.096424,0.21942,0.040922,0.1396,0.18725,0.022301,0.0013172,3.2291e-05,0.00093946,-0.015427,0.051715,0.064816,0.050639,0.11879,0.18066,0.11017,0.12439,0.087981,-0.10983,-0.2823,-0.38679,-0.38584,-0.30019,-0.29289,-0.49026,-0.48014,-0.21756,-0.040545,0.12729,0.21962,0.15723,0.17925,0.10233,0.051169,0.013226,0.00029269,-0.00024039,-0.028264,0.020442,-0.024697,-0.035091,0.013016,0.013003,0.15375,0.26353,0.16026,-0.16507,-0.39385,-0.47001,-0.37647,-0.24548,-0.24135,-0.32732,-0.29529,-0.13006,-0.029682,0.14461,0.15283,0.16698,0.14712,0.045397,0.019554,0.0091079,0.00045066,0.00026289,-0.02765,0.018624,-0.066082,-0.016628,-0.039992,-0.013133,0.25873,0.36088,0.36208,0.024821,-0.18058,-0.42693,-0.27244,-0.12358,-0.13957,-0.18748,-0.076846,-0.050708,0.10416,0.12332,0.11163,0.13269,0.10328,0.055715,0.0323,0.015121,0.00086244,0.00080966,-0.020847,0.038335,-0.077046,-0.056664,-0.010882,0.08142,0.16668,0.35706,0.41449,0.18582,0.068792,-0.21831,-0.30659,-0.208,-0.11034,-0.029062,0.085143,0.06509,0.069388,0.057608,0.081017,0.075255,-0.0032627,-0.010576,0.058923,0.023011,2.0403e-05,0.00089509,-0.013773,0.029559,-0.04903,-0.060348,0.10222,0.23944,0.16934,0.24288,0.26392,0.17752,0.094479,-0.097301,-0.11531,-0.017133,0.015022,0.19049,0.20443,0.10448,0.059552,0.026277,0.013063,0.090665,-0.026822,-0.026762,0.054449,0.016509,0.00026709,0.0013107,-0.012055,0.0082014,0.028005,-0.01852,0.13625,0.27528,0.19553,0.15848,0.18895,0.21833,0.076806,-0.098648,0.045911,0.18111,0.29968,0.30456,0.25922,0.085631,0.035769,0.017962,-0.027799,0.056365,-0.11939,-0.046764,0.00079415,0.0059304,0.0010171,0.0012166,-0.0094558,-0.0082121,-0.042772,-0.026338,0.069905,0.17304,0.064651,0.11971,0.14322,0.10751,-0.11488,-0.1519,0.033229,0.30998,0.3983,0.30005,0.16294,0.04683,-0.038049,-0.067294,-0.026662,-0.087947,-0.18749,-0.087171,-0.022553,0.0035036,0.0011471,0.00082121,-0.0064961,-0.019156,-0.11289,-0.020154,0.067338,0.1107,0.089571,0.049487,0.16816,0.075674,-0.090019,-0.15615,0.09574,0.38712,0.39818,0.20512,0.10823,0.043731,0.00011435,-0.063849,-0.07843,-0.129,-0.16043,-0.10283,-0.045713,-0.0032268,0.00070958,0.00097206,-0.0048857,-0.030253,-0.061187,-0.017664,0.060872,0.027788,-5.3232e-05,0.0415,0.12863,0.034073,-0.076392,-0.046502,0.19571,0.38716,0.31688,0.16394,0.12098,0.055876,-0.020677,-0.076595,-0.10375,-0.11571,-0.12661,-0.082847,-0.031127,0.0015502,0.0011146,0.00037559,-0.0012671,-0.032474,-0.028613,-0.027725,-0.020765,-0.05871,-0.059096,-0.048369,0.017951,-0.027217,-0.039463,0.036232,0.18752,0.25447,0.19029,0.098079,0.018299,-0.059999,-0.10152,-0.081109,-0.020886,-0.053623,-0.059965,-0.026898,-0.0078134,-0.0019214,0.00030014,0.00030258,0.00038309,-0.014211,-0.035759,-0.024191,-0.041709,-0.054741,-0.06623,-0.096449,-0.049284,-0.065966,-0.040005,0.0036529,0.072244,0.12402,0.054899,-0.040002,-0.084642,-0.070328,-0.078219,-0.049236,-0.030812,-0.040157,-0.0298,-0.0098457,-0.0043431,0.0016598,0.0010004,0.00043476,0.00068306,-0.0019031,-0.0069006,-0.025198,-0.03849,-0.083832,-0.091749,-0.08123,-0.032661,-0.040631,-0.00084639,0.011855,0.024779,0.024554,0.0054157,-0.056054,-0.072321,-0.067904,-0.057521,-0.02279,-0.011206,-0.009738,-0.011557,0.0014369,0.0004561,0.00027914,0.0012355,0.00082084,0.00063789,0.00090741,-0.00059399,-0.0060062,-0.02108,-0.031288,-0.043005,-0.042159,-0.023268,-0.014145,-0.0051475,-0.012898,-0.0014347,-0.0024581,-0.01906,-0.02448,-0.02237,-0.02206,-0.01203,-0.0027956,-0.00052654,0.0017421,-0.00037903,0.00035645,0.00033547,0.00059405,0.00042164,0.00067821,0.00039087,0.00017093,0.00099314,-0.0026102,-0.0088988,-0.004891,-0.0066191,-0.011951,-0.011466,-0.0034503,0.0010776,0.0013422,0.0014604,0.0023419,-0.008121,-0.0046851,-0.0018055,-0.0075564,-0.0036306,-9.1929e-05,0.001366,0.0012559,0.00015265,0.00026097,0.00064152,0.00059249,0.00080057,0.00082204,0.00082146,0.00078981,0.00041051,-0.00030303,-0.0045269,-0.00032843,-0.001966,0.00026974,0.00032404,-4.3622e-05,0.00057888,0.00088583,0.00034644,0.00058452,0.00037108,0.00045058,2.7769e-05,0.00096471,0.00038185,0.0011496,0.00059919,0.00055068,0.00097052,0.00025981,0.00018809,0.00030092},
{0.00068326,0.0010518,0.00096652,7.2671e-06,0.00016363,0.00037076,0.00057036,0.00023999,0.0011095,0.00058992,0.00013487,0.00075704,0.00099332,0.00049051,0.00043916,0.00054588,0.0010265,0.00056342,0.00076705,0.0009522,0.0011835,0.00069082,0.0010435,0.0012572,0.0012651,0.0008412,4.1154e-05,0.00045394,0.0011483,0.00057053,0.00053644,0.00014941,0.00048956,0.00088144,5.0644e-05,-0.00039062,0.00077712,0.0005451,0.0013093,0.00037995,0.00047008,0.00084551,0.00093213,0.00026234,-0.00014638,0.0011744,0.00066477,0.00087551,5.1051e-05,0.0010497,0.0011212,1.6403e-06,0.00026189,0.00023439,0.00067371,0.00079745,0.0005939,0.00071207,0.00050846,0.00057666,0.00031694,0.00071054,0.00090281,0.00041908,0.00088235,0.00076611,0.00051649,0.0009789,0.0010245,0.00014639,0.00093754,0.0012635,0.0001125,-7.6778e-05,0.00030203,0.00046776,0.00045817,-0.00027339,-0.00058303,0.00075947,0.0011026,6.1427e-05,0.00015253,0.00058395,0.00061306,0.00032506,0.00010553,0.0012167,0.00085043,0.00045765,-0.0001913,0.00051972,0.00070639,0.0018527,-0.0019183,-0.0013883,0.0013279,0.0034942,0.004412,0.00092151,-0.00074691,-0.003296,-0.004635,-0.0068787,-0.0093223,-0.0079283,-0.0042389,-0.0062503,-0.0082915,-0.00071714,0.00011552,0.00074058,6.3247e-05,0.00074145,0.00027918,-2.5168e-06,-0.0016085,-0.0011182,0.0011265,-0.0074719,-0.014235,-0.020845,-0.0112,-0.0020453,0.003015,0.0046158,0.00074848,-0.0028244,-0.0057491,-0.014475,-0.016392,-0.025719,-0.024702,0.011978,0.031821,0.023023,-0.014085,0.0011327,0.0013127,0.00011881,0.0004107,0.0011744,0.0010636,0.00058625,-0.0031671,-0.011012,-0.045571,-0.053363,-0.058798,-0.053965,-0.03861,-0.018409,-0.015211,-0.010148,-0.017106,-0.030844,-0.04806,-0.066778,-0.086821,-0.095482,-0.060297,0.05459,0.11535,0.088764,0.017414,0.0047131,0.0013423,0.00083713,0.0011444,0.00032088,0.0006321,-0.0016993,-0.013002,-0.047061,-0.094785,-0.12047,-0.1155,-0.098966,-0.066722,-0.046591,-0.032276,-0.022798,-0.021798,-0.043222,-0.09312,-0.14527,-0.18252,-0.16845,-0.058512,0.06711,0.1123,0.13114,0.034225,-0.0043857,-0.0018753,0.001056,0.0007259,0.00045514,6.7181e-06,-0.0080113,-0.020933,-0.077532,-0.15515,-0.19233,-0.18517,-0.15561,-0.097928,-0.052021,-0.024713,-0.01586,-0.025639,-0.056053,-0.12274,-0.17723,-0.20316,-0.20753,-0.12798,0.0010894,0.064877,0.09602,-0.0033966,-0.0178,-0.0042794,0.0010882,0.0010304,-0.0018239,-0.0032038,-0.025204,-0.047912,-0.15528,-0.22821,-0.28733,-0.27,-0.22138,-0.12817,-0.054097,-0.033858,-0.018783,-0.046471,-0.077038,-0.14579,-0.16923,-0.15725,-0.19666,-0.12761,-0.048771,-0.032523,0.030722,-0.055976,-0.014102,-0.0036683,0.00066025,0.0002641,-0.00095073,-0.0032785,-0.044583,-0.091628,-0.23125,-0.31894,-0.33382,-0.30485,-0.24848,-0.13921,-0.082131,-0.078106,-0.089755,-0.10245,-0.11216,-0.13791,-0.10662,-0.10641,-0.12372,-0.093061,-0.077801,-0.074386,-0.035679,-0.10369,-0.049847,-0.0059501,0.0010639,0.00033351,-0.0012643,-0.0058831,-0.065348,-0.11985,-0.21376,-0.27815,-0.29003,-0.29491,-0.21264,-0.11586,-0.13663,-0.17348,-0.19431,-0.16771,-0.10231,-0.072867,-0.059489,-0.056824,-0.055086,-0.010102,-0.073292,-0.15061,-0.083765,-0.1761,-0.11259,-0.013388,0.0010444,0.00089184,0.00069552,-0.0071313,-0.099262,-0.082378,-0.095493,-0.17045,-0.181,-0.15963,-0.082254,-0.044534,-0.11911,-0.19246,-0.18168,-0.082716,-0.00244,-0.044202,-0.06826,0.038109,-0.016365,-0.021182,-0.15352,-0.26782,-0.11834,-0.2178,-0.11687,-0.013985,0.00012124,6.7593e-05,0.00026249,-0.0090363,-0.11165,-0.041023,-0.06545,-0.11763,-0.10829,-0.080512,-0.050845,-0.030141,-0.015762,0.055436,0.11005,0.11684,0.03374,-0.055714,0.02693,0.075957,-0.0045022,-0.091719,-0.23626,-0.34263,-0.1953,-0.23605,-0.11926,-0.025062,0.00096647,0.00046133,0.00085683,-0.009455,-0.1113,-0.038163,-0.062242,-0.11653,-0.16636,-0.073048,-0.068315,0.056339,0.17753,0.2697,0.33008,0.2161,0.13473,0.13543,0.23234,0.11088,0.0091676,-0.081732,-0.23457,-0.30056,-0.23854,-0.28915,-0.13792,-0.021065,0.0024873,0.00039703,-0.0005811,-0.0066643,-0.10033,-0.035069,-0.04539,-0.19567,-0.23612,-0.089222,0.073178,0.26232,0.45387,0.50411,0.44679,0.2845,0.22075,0.23227,0.20323,0.061203,-0.034389,-0.044235,-0.10842,-0.10185,-0.14796,-0.26845,-0.12151,-0.016347,0.0029878,0.00055853,-0.0018443,-0.0033871,-0.09559,-0.045449,-0.086828,-0.27488,-0.20899,0.0062777,0.12899,0.26561,0.38006,0.3809,0.28432,0.14237,0.088038,0.0072545,-0.091187,-0.14992,-0.094503,-0.10268,-0.03642,0.02909,0.07559,-0.17971,-0.091534,-0.0077232,0.0021772,0.00035124,-0.0031083,-0.0025851,-0.061923,-0.052593,-0.11788,-0.23245,-0.12376,-0.051716,0.06293,0.16596,0.18419,0.14247,0.096742,0.049993,0.036679,-0.12143,-0.23123,-0.2231,-0.13415,-0.072279,-0.0048687,0.14111,0.16428,-0.088084,-0.015633,0.0066836,0.0029394,0.00050877,0.00067817,-0.0034178,-0.070264,-0.1048,-0.21808,-0.21365,-0.066043,0.029874,-0.023134,-0.018512,-0.022989,0.00033971,-0.068898,-0.15996,-0.17482,-0.23854,-0.28523,-0.19539,-0.14723,-0.1056,-0.027224,0.14686,0.16485,-0.029262,-0.0034607,0.0045466,0.002078,0.00088025,0.00063199,0.0020908,-0.080944,-0.056902,-0.13779,-0.1612,-0.048868,0.0028413,-0.026401,-0.089739,-0.037304,-0.11282,-0.20439,-0.2193,-0.20272,-0.26776,-0.28056,-0.24866,-0.18436,-0.16187,-0.11338,0.012989,-0.01407,-0.014833,0.0010508,0.00026153,-0.0011669,0.00081424,0.0013798,-0.00064037,-0.056295,0.0078938,-0.046392,-0.097217,0.0039272,-0.033418,-0.16148,-0.14232,-0.12145,-0.17689,-0.1765,-0.14556,-0.17042,-0.19122,-0.21925,-0.21352,-0.15329,-0.18225,-0.17505,-0.10134,-0.07031,-0.023155,0.0029503,0.0023978,7.0624e-05,0.00037826,0.0012306,-0.0054198,-0.037212,0.073837,0.066266,0.049193,0.041435,-0.072276,-0.17066,-0.193,-0.12603,-0.1727,-0.1261,-0.078396,-0.12011,-0.13924,-0.17369,-0.18731,-0.15139,-0.17791,-0.18925,-0.13156,-0.074824,-0.038091,0.0021204,0.0027049,0.00093372,0.00023427,0.0015073,-0.00051598,-0.014578,0.090692,0.12949,0.087763,0.03501,-0.074501,-0.18066,-0.16419,-0.12335,-0.12815,-0.079357,-0.070872,-0.083617,-0.0924,-0.13915,-0.16771,-0.14439,-0.16617,-0.14404,-0.091198,-0.064311,-0.038031,0.0030752,0.0026823,0.00025024,0.0010162,0.00086436,0.0015704,-0.00026567,0.075431,0.14988,0.071318,0.012942,-0.11168,-0.16226,-0.1287,-0.10691,-0.095563,-0.065264,-0.062773,-0.069139,-0.084897,-0.11552,-0.15102,-0.12744,-0.11642,-0.09419,-0.051901,-0.025219,-0.011978,0.0046418,0.00135,0.0014016,0.00061538,0.00080724,0.00089948,-0.0040036,0.046405,0.10315,0.040794,-0.026172,-0.098529,-0.12181,-0.095661,-0.071955,-0.052437,-0.038255,-0.045816,-0.052616,-0.074864,-0.10149,-0.12137,-0.094775,-0.072984,-0.053457,-0.029922,-0.0088488,0.001129,0.00046631,0.00069202,0.00092766,0.0012599,0.00044492,0.00021868,-0.002821,-0.0035875,0.021384,-0.029966,-0.067582,-0.068322,-0.093799,-0.048515,-0.038237,-0.021719,-0.023109,-0.021595,-0.028157,-0.05775,-0.081997,-0.077143,-0.054697,-0.043791,-0.02413,-0.012841,0.00049349,0.00085018,0.00080902,0.00011753,0.00098433,0.00012759,0.00015195,0.00015572,6.4776e-05,-0.0027467,-0.0063817,-0.022425,-0.037741,-0.032197,-0.031282,-0.0058156,-0.00055346,-0.004243,-0.0039229,-0.0038688,-0.01448,-0.027312,-0.035115,-0.026625,-0.017489,-0.011532,-0.010212,-0.0046664,0.00071884,0.0010053,0.00047078,0.0010182,0.00039181,0.00035476,0.0010863,0.00076631,8.8442e-05,0.00073934,-0.0021791,0.0023338,-2.1109e-05,-0.0050237,-0.010152,0.0013408,-0.00078105,0.00057046,0.0024917,-0.00036253,-0.0038202,-0.00010936,0.00039577,0.0066078,0.0071793,0.0075724,0.00055829,0.0018889,0.0018185,0.00035177,0.00030449,0.00040627,0.0012015,0.00082596,0.000185,6.7951e-05,0.00099571,0.00093069,4.9361e-05,0.00074134,-0.00037216,5.0336e-06,-7.9601e-05,-9.4261e-05,0.0012698,0.00040858,0.00054208,0.00058608,-0.00056553,0.00032884,-0.0013584,0.00064687,0.00081289,0.00092063,0.0012375,0.00082814,0.0012208,0.0011192,0.00047132,0.001172,0.00016848},
{0.00055232,0.00029607,0.00039017,0.00084942,0.00055196,0.00079396,0.00025369,0.00019719,0.00060856,0.001308,0.0015352,0.00098407,0.0015645,0.00026289,0.0013255,0.001237,0.00015352,0.0012184,0.0020691,0.00074602,0.00096207,0.0012017,0.00061686,6.8578e-05,0.00063397,0.00039715,0.00067183,1.5401e-05,0.0001365,0.00083971,0.00086577,0.00068185,0.0003618,0.00072585,0.00050996,0.00074807,0.0038859,0.005104,0.0043813,0.0047726,0.0075607,0.0049642,0.0036704,0.0002243,0.0013379,0.00069118,0.0011135,0.0016181,0.001013,0.0013648,0.00044847,0.0006029,0.00060327,0.00058947,0.00068992,0.00072209,0.0011641,0.0010043,0.0003801,0.0010117,0.00088789,0.00096622,0.00038081,0.00061717,0.0075564,0.019487,0.018058,0.02367,0.016093,0.0096309,0.0099542,0.0045755,0.000781,0.0024618,0.0050013,0.005298,0.0024854,0.00087329,0.0011033,0.00063237,0.00015234,-0.00021559,0.00015277,0.0010847,0.00066938,0.00042966,0.0017509,0.0026541,0.0023133,0.0037506,0.001944,0.023014,0.056249,0.083523,0.087781,0.054761,0.024086,-0.013994,-0.019669,0.0020261,0.016359,0.022946,0.02347,0.025626,0.027218,0.015578,0.0053664,0.0059156,0.0057177,0.0038149,-0.00028567,0.0008324,5.5519e-05,0.00064843,0.00073256,0.0014522,0.0041676,0.00022684,0.010474,0.066651,0.11255,0.14178,0.14226,0.062903,-0.039171,-0.11412,-0.10123,-0.029463,0.032044,0.086712,0.10655,0.11257,0.096786,0.066521,0.030638,0.019394,0.0019258,-0.0044529,-0.022232,0.00048342,0.00086859,0.00083768,0.00079559,-0.0011524,0.0045537,0.0014351,0.030316,0.13043,0.20879,0.24528,0.17606,0.016258,-0.11603,-0.23808,-0.26713,-0.18687,-0.054189,0.11761,0.18403,0.22181,0.23841,0.19845,0.13559,0.053596,-0.03685,-0.058848,-0.016089,0.0007825,0.00029049,0.00057401,0.00070719,-0.0092071,-0.0045916,0.00021112,0.085598,0.23207,0.30134,0.27365,0.1636,-0.014625,-0.22418,-0.37261,-0.3746,-0.37729,-0.25124,-0.0026308,0.19987,0.36233,0.38004,0.36156,0.26006,0.074439,-0.070523,-0.094148,-0.01165,0.0024307,0.00039161,0.00026464,0.010604,-0.00029953,0.0011821,0.043382,0.13487,0.30506,0.37312,0.26479,0.15317,0.057334,-0.10755,-0.34091,-0.43686,-0.4676,-0.33763,-0.1984,0.013131,0.39463,0.47224,0.43562,0.34181,0.12907,-0.070278,-0.094005,-0.011161,0.011123,0.0011495,0.00069124,-0.0025029,-0.01237,0.012153,0.052448,0.16069,0.34251,0.32505,0.20811,-0.0080712,-0.046362,-0.12593,-0.24675,-0.3753,-0.4957,-0.41221,-0.26116,-0.083275,0.28132,0.52209,0.47522,0.33959,0.17619,-0.048341,-0.076758,0.0081711,0.02248,0.00063376,2.9719e-05,-0.0069583,-0.0053357,0.0056685,0.06514,0.21445,0.25908,0.20544,0.092726,-0.02937,-0.038812,-0.16165,-0.23941,-0.35797,-0.45694,-0.28312,-0.22314,-0.11874,0.2609,0.50245,0.40223,0.31123,0.24491,0.037083,-0.046319,-0.0062413,0.013244,0.00083237,-0.0011343,-0.0015655,0.0035236,0.056281,0.14368,0.29884,0.20058,0.23477,0.18021,0.14035,0.014783,-0.23259,-0.44217,-0.40869,-0.35733,-0.27923,-0.25958,-0.14204,0.13304,0.33194,0.3373,0.31208,0.31998,0.069828,-0.0086177,0.0014055,0.011226,0.00038219,-0.00019319,-0.00057754,0.027023,0.092781,0.25781,0.20318,0.27383,0.36825,0.31492,0.17161,0.025728,-0.25352,-0.47027,-0.45096,-0.32948,-0.28933,-0.20743,-0.064081,0.056057,0.1119,0.12353,0.33459,0.43164,0.13415,0.046679,0.061125,0.0059394,0.00094378,-0.0027571,-0.0014847,-0.006831,0.11031,0.30126,0.15321,0.23831,0.34958,0.18511,0.2069,-0.0037912,-0.27872,-0.42616,-0.38631,-0.1215,0.01004,-0.040902,-0.083162,0.10973,0.089678,0.025717,0.3173,0.52341,0.17827,0.067593,0.036985,0.0016127,-1.607e-05,-5.2555e-05,-0.016723,-0.067124,0.12079,0.38237,0.18263,0.084088,0.17619,0.24905,0.31512,0.095572,-0.29671,-0.36691,-0.16045,0.09659,0.071268,-0.074598,-0.021463,0.080085,0.043041,0.0061312,0.21099,0.45799,0.2387,0.051106,0.082759,0.016398,0.00078514,-0.0002174,-0.065801,-0.12529,0.16188,0.47944,0.21935,-0.021101,0.12954,0.24379,0.41652,0.20018,-0.081913,-0.20568,-0.10152,-0.072233,-0.22079,-0.14915,-0.0010815,0.14209,0.034158,0.013734,0.22816,0.46925,0.29259,0.02723,0.025884,0.0089146,0.00041671,0.0011335,-0.053647,-0.10779,0.18742,0.49007,0.097663,-0.20247,0.014867,0.20158,0.44608,0.16494,-0.13755,-0.31392,-0.26716,-0.26808,-0.26053,-0.23633,-0.01638,0.046169,-0.061114,-0.019375,0.22492,0.49374,0.27627,0.059297,0.034771,0.017128,0.0003984,0.0039136,-0.060877,-0.1344,0.13867,0.42439,0.046348,-0.14368,0.052082,0.30501,0.42246,0.028045,-0.15875,-0.29416,-0.34516,-0.34234,-0.25249,-0.07854,0.0068527,-0.027334,-0.19529,-0.043832,0.26439,0.43151,0.21405,0.035912,0.098423,0.020158,0.0002216,0.00030892,-0.065154,-0.18687,0.012365,0.25412,0.0082459,-0.026821,0.083741,0.24339,0.15892,-0.14348,-0.15906,-0.20251,-0.28459,-0.33952,-0.16945,0.048524,0.052272,-0.089902,-0.086589,0.0037812,0.24138,0.34409,0.10537,0.018449,0.069578,0.013222,0.00051585,-0.00020971,-0.05991,-0.26719,-0.12651,0.1097,0.072246,0.11982,0.22822,0.29881,0.11572,-0.068719,-0.095163,-0.134,-0.21194,-0.21606,-0.042542,0.046757,0.087966,0.006088,-0.0022835,0.11989,0.23751,0.23949,-0.010777,-0.032162,-0.0041444,-0.00057965,0.00057813,-0.00019636,-0.046297,-0.2711,-0.24435,-0.010313,0.11106,0.21972,0.31185,0.30775,0.18018,-0.067435,-0.10978,-0.12432,-0.19849,-0.14982,0.077399,0.15673,0.073554,-0.050591,0.0023546,0.10688,0.1298,0.040321,-0.0825,-0.083241,-0.021555,-0.0013691,0.001217,-0.00025552,-0.035022,-0.20251,-0.2878,-0.091182,0.08677,0.24521,0.27745,0.19031,0.083535,-0.093523,-0.066825,-0.12456,-0.12946,-0.044709,0.0589,0.089988,-0.045938,-0.066232,0.052113,0.088315,0.068172,-0.056417,-0.13403,-0.10693,-0.056004,-0.0092439,0.00025395,-0.0010995,-0.032501,-0.16305,-0.20441,-0.00055616,0.14956,0.28608,0.23605,0.28485,0.20787,0.025872,-0.018195,-0.060482,0.0037333,0.055528,0.037644,-0.012072,-0.0067929,0.027489,0.14894,0.11369,0.068126,-0.076234,-0.15451,-0.13243,-0.058054,8.1785e-05,0.00052308,0.00053276,-0.022708,-0.15631,-0.13919,-0.0060267,0.19654,0.30073,0.35407,0.37773,0.33114,0.070946,-0.025835,-0.13315,-0.10384,-0.078737,-0.054011,0.033751,0.12256,0.14064,0.15004,0.10843,0.051817,-0.047014,-0.066054,-0.056177,-0.021724,-0.0042207,0.00097048,0.00074929,-0.0076008,-0.11218,-0.091346,-0.0075265,0.1492,0.25869,0.36046,0.45121,0.37823,0.1172,-0.036379,-0.15495,-0.15915,-0.095354,-0.05809,0.035125,0.097332,0.092526,0.099414,0.058153,-0.00097891,-0.027096,-0.027351,-0.022091,-0.0080864,0.00036848,0.0012469,7.4397e-05,-0.0014248,-0.048013,-0.012795,0.0025019,0.11223,0.21569,0.28764,0.35855,0.316,0.15006,-0.012836,-0.07691,-0.072914,-0.025376,0.030604,0.071474,0.055521,0.03144,0.029551,0.0096707,0.0097709,0.0056052,-0.0036243,0.0016477,0.00065779,0.00091222,0.0010915,0.00076431,0.00021601,-0.0011894,0.0062682,0.01799,0.058176,0.11199,0.16754,0.20906,0.1818,0.085583,0.012232,-0.012347,0.0020969,0.030464,0.068195,0.062613,0.020732,0.012328,0.0072415,0.0036502,0.0033292,0.0038463,0.00039976,0.0010196,0.001034,0.0007644,0.00075443,0.0012597,0.0010287,-0.0018098,0.0018463,0.0077732,0.013971,0.034387,0.042435,0.06216,0.051777,0.031103,0.0091094,0.0098321,0.021811,0.026319,0.01756,0.018554,0.0038085,0.0044822,0.0012422,0.00021239,0.0011198,0.001797,0.00024534,0.00088711,0.001051,0.00013735,0.00042124,2.6155e-05,0.0008268,0.00062174,0.0010721,0.00031782,0.0018646,0.003902,0.0032194,0.0077882,0.0053248,0.0012413,0.0003804,0.00043176,0.0011342,0.00062784,0.00064271,0.00029467,0.0031667,0.0017294,0.0011969,0.00016827,0.00078659,0.00073491,0.00056285,0.00067024,0.00050608,0.00089556},
{0.00101,0.00024254,3.9404e-05,0.0010721,0.0011676,0.00034198,0.00092844,0.00076848,0.00050789,0.0011267,0.0015399,0.00052024,0.0014654,0.00029938,-0.00069544,0.00047213,0.00079888,0.00034131,0.00094904,0.0010528,0.00052221,7.9975e-05,0.00011306,0.00027305,0.00099647,0.00024131,0.00074211,0.00087392,0.00052682,0.00047923,8.4737e-05,0.0012626,0.00093995,0.00074722,0.00045708,-0.00063963,0.0043358,0.0074147,0.0077117,0.0055804,0.0076596,0.011893,0.0066412,-0.0035459,-0.006473,-0.0011534,0.00012081,0.0013164,-0.0016464,-2.6744e-05,0.00096422,0.0011409,0.00067769,0.0001459,0.00031269,0.0010839,0.00011513,0.00061837,0.00077057,2.0931e-05,0.00016146,0.00042937,0.0015543,0.0033198,0.0032984,0.0053568,0.0079629,0.014639,0.025668,0.016492,0.013702,-0.0087841,-0.036057,-0.041062,-0.031315,-0.019686,-0.010683,-0.0074622,0.00011312,-0.0085833,-0.0099299,-0.0013029,0.00085616,0.0008746,0.00050656,0.00035003,0.00012447,0.00024581,0.0034743,0.00033727,0.0040633,0.0060144,0.015379,0.027362,0.0084104,0.014575,0.042864,0.031769,0.021963,-0.019885,-0.085711,-0.15075,-0.1952,-0.1846,-0.14977,-0.086444,-0.050824,-0.046849,-0.023755,-0.0029801,0.00098376,2.3518e-05,0.00031025,0.00046519,6.9035e-05,0.00036425,-0.00482,-0.0027457,-0.020754,-0.019532,0.0048191,0.058801,0.055421,0.045444,0.042614,0.034103,0.0073668,0.0081294,-0.03282,-0.12507,-0.19311,-0.19285,-0.16326,-0.15723,-0.11951,-0.11186,-0.066969,-0.0086638,-0.0033399,0.0010482,0.00078835,0.00095817,0.00011155,-0.0014356,-0.016196,-0.024044,-0.025411,-0.047428,0.022292,0.10887,0.097187,0.044957,0.027092,0.017391,0.098147,0.21172,0.24186,0.10888,-0.062389,-0.15402,-0.061021,-0.04604,-0.064705,-0.17685,-0.13498,-0.024504,-0.0018618,0.0013642,0.00024871,0.0005843,0.00051827,0.0011991,-0.020131,-0.038778,-0.012646,0.050276,0.072305,0.056326,0.068963,0.046051,0.069339,0.10621,0.21622,0.43258,0.44469,0.25493,-0.1033,-0.27576,-0.16458,-0.03077,0.093452,-0.13373,-0.21015,-0.063394,-0.0022188,0.00088245,0.0012156,0.0011304,0.0014838,0.0026303,-0.032325,0.024756,0.084116,0.088415,0.071024,0.032064,-0.015537,-0.017273,-0.0080566,0.045089,0.25871,0.52162,0.69673,0.63586,0.16519,-0.19828,-0.22613,-0.072136,0.084993,-0.039683,-0.25847,-0.081572,0.0045777,0.0029014,0.00031756,0.00099973,0.0019746,0.015108,0.030873,0.095858,0.072873,0.13076,0.09838,-0.00023752,-0.10039,0.00017369,0.041365,-0.0095079,0.12829,0.3598,0.83526,1.1414,0.6518,-0.025381,-0.35196,-0.24597,0.041495,-0.047511,-0.22801,-0.12394,0.016836,0.0047426,0.00017514,0.00053142,0.0070795,0.04674,0.08686,0.10007,0.025073,0.080458,-0.007127,0.042082,-0.018997,0.092431,0.090014,-0.044921,-0.14144,0.0246,0.67741,1.3556,0.94344,0.16179,-0.30867,-0.12558,-0.096161,-0.17511,-0.29956,-0.16304,0.0048152,0.001856,0.0006906,0.0015149,0.0079123,0.085534,0.012947,-0.01833,0.0013811,0.042814,0.032466,0.14429,0.15357,0.081241,-0.13628,-0.21596,-0.28125,-0.12555,0.3609,1.2248,1.0253,0.26235,-0.19001,-0.07884,-0.049529,-0.207,-0.30588,-0.19313,0.007577,-6.7766e-05,0.00082646,0.00055277,0.0154,0.10496,-0.053823,-0.071414,-0.0997,-0.050389,0.054756,0.069186,0.0072979,-0.057079,-0.24781,-0.060646,-0.07927,-0.16503,-0.0021079,0.98606,1.0584,0.35165,-0.20271,-0.034554,-0.033161,-0.11318,-0.19722,-0.24492,0.028319,0.0029962,0.00050009,0.0010873,0.020043,0.050262,-0.17374,-0.11532,-0.17212,-0.10254,0.039718,0.066865,0.071777,-0.066241,-0.23303,-0.11376,-0.12138,-0.24526,-0.080135,0.79534,0.88216,0.17894,-0.052887,0.035918,-0.0036583,0.070667,-0.10997,-0.24713,0.047443,0.0043984,0.00089516,0.001034,0.019615,0.031014,-0.11613,0.026724,-0.17111,-0.21878,-0.080475,0.0087809,-0.040381,-0.24321,-0.19533,-0.25748,-0.22322,-0.21201,-0.026878,0.49123,0.49897,0.034705,-0.017905,0.022971,0.020484,0.076039,-0.072669,-0.14263,0.045188,0.0047861,5.6961e-06,0.002185,0.031095,0.0078007,-0.065617,0.093594,-0.14028,-0.16872,-0.14503,-0.006523,-0.1773,-0.38579,-0.4207,-0.33126,-0.2378,-0.11093,-0.021814,0.28825,0.24545,0.00042433,0.073625,0.043378,-0.040814,0.0010494,0.07396,-0.063329,0.038381,0.0010328,6.0297e-05,0.0013495,0.032131,0.042852,-0.12992,0.016421,0.053445,-0.018081,-0.19612,-0.010827,-0.15345,-0.25364,-0.15816,0.0037285,-0.010775,0.08467,0.22004,0.22107,0.042764,0.045068,0.094389,0.059714,-0.032009,-0.015635,0.15062,0.0081551,0.028647,0.0047865,0.0005899,0.00054548,0.02646,0.017409,-0.1113,-0.10059,-0.041871,-0.054226,0.018543,0.12091,0.065978,0.10125,-0.033962,-0.070059,0.12378,0.16757,0.16678,0.025707,0.018181,0.047734,-0.013876,0.03691,-0.099402,-0.022507,0.13026,0.0070367,0.014778,0.010159,0.00079042,0.00062995,0.029974,0.032126,-0.12895,0.041575,-0.085174,-0.10282,0.040592,0.25608,0.21577,0.1227,0.006855,0.0052935,0.10454,0.15751,0.084038,-0.0031771,-0.0080365,0.036638,-0.011874,-0.052423,-0.12714,-0.083604,0.058295,0.0159,0.023631,0.0073818,0.00021937,0.00082517,0.021699,0.022544,-0.14086,0.11251,-0.066634,-0.11216,0.019805,0.21352,0.25428,0.16817,-0.059936,-0.12587,-0.054372,-0.012876,-0.04559,-0.01998,-0.021693,-0.043598,0.041745,0.018389,-0.036831,0.030365,0.12499,0.048071,0.014451,0.0032015,1.6081e-05,0.00079201,0.016654,0.035717,0.0050053,0.12549,0.095234,-0.042982,0.10834,0.19575,0.26547,0.27537,0.18263,0.003946,-0.0052868,-0.034397,-0.074628,-0.081993,-0.065191,-0.036424,0.13131,0.049966,-0.10671,0.052105,0.12132,0.029782,0.0022537,0.0025057,0.00053135,0.0014572,0.024388,0.03442,0.053855,-0.010903,0.053706,-0.048078,-0.010124,-0.024118,0.20609,0.37489,0.32283,0.17492,-0.024107,-0.12111,-0.084788,-0.028858,-0.04226,-0.027896,-0.075943,-0.062805,-0.034355,0.085761,0.069555,0.0039173,-0.012061,0.0019268,0.0002179,0.00030063,0.017364,0.027194,-0.025796,-0.039293,-0.030098,0.011106,-0.0681,-0.042923,0.20973,0.50524,0.46108,0.27529,0.049833,-0.07882,-0.14881,-0.13074,-0.099586,-0.10467,-0.064867,0.011456,0.068674,0.061081,0.029569,-0.020688,-0.012745,0.0013493,0.001211,0.00012519,0.0038754,-0.0031747,-0.031311,-0.12838,-0.10545,0.11389,0.008096,-0.065374,0.23792,0.54374,0.53882,0.38472,0.1876,0.004765,-0.179,-0.19038,-0.096315,-0.024332,0.071945,0.10764,0.042497,0.073207,0.03903,-0.0083122,-0.00061341,0.00056057,0.00019769,0.00077272,0.00071446,0.0079528,-0.0092591,-0.10181,-0.17621,-0.067852,-0.13258,-0.18805,0.15837,0.38168,0.42887,0.35854,0.24097,0.10415,0.02651,-0.031521,0.024698,0.032365,0.090133,0.09126,0.043428,0.038426,0.008782,0.00061832,0.00093721,0.00017926,0.0001929,2.772e-05,0.00074196,0.0045633,-0.027319,-0.047403,-0.16866,-0.24556,-0.43509,-0.4163,-0.067763,0.1459,0.1998,0.18564,0.14167,0.099012,0.059856,0.074353,0.050209,0.051085,0.058826,0.044728,0.031528,0.014033,0.0056131,0.001306,0.00015958,0.00077302,0.00022904,0.00092733,0.00031145,0.0036388,-0.011487,-0.041961,-0.14165,-0.2585,-0.37096,-0.31005,-0.11532,-0.019726,0.013048,0.020145,0.026772,0.026144,0.03446,0.04351,0.046377,0.056185,0.039824,0.023214,0.01147,0.0050059,0.0030276,0.0011307,0.0010896,8.9284e-05,0.00043536,0.00038343,0.00019462,0.0010435,-0.00082163,-0.0065083,-0.057811,-0.09278,-0.0808,-0.024841,-0.024734,-0.010798,0.00060391,0.00051981,0.0015764,0.0042641,0.012505,0.0069466,0.0030415,0.0085895,0.0079199,0.0015749,-0.00010427,-0.00027791,0.0010234,0.00051852,0.00097902,0.00033422,0.00066334,0.00099026,0.00044926,0.00020836,0.00060819,0.0010946,-0.011157,-0.0088356,-0.009593,-0.00097962,-0.00043602,0.00069163,0.00013253,0.00082719,0.0007854,0.00081882,0.00058932,0.0014091,0.00074025,0.00051784,0.00060222,0.00080897,0.001024,0.00067721,2.067e-05,0.0007397,0.00089434,4.097e-05},
{0.00040428,0.00099124,0.00028151,0.00031075,0.00098493,0.0010275,0.001079,0.00015934,0.00064036,0.00039267,0.00046468,0.0012067,0.00046021,0.0012137,0.00043913,0.00015062,0.00043483,0.00038376,0.00049029,0.00017182,0.00061138,0.00058418,5.4902e-05,0.00070423,0.0011174,0.00099239,0.00087303,1.833e-05,0.00044747,0.0003466,0.00022026,0.00025921,0.00096763,0.00090184,0.0010969,0.00068301,0.00045159,0.001052,0.0014094,0.0012711,-0.00049624,0.00085556,0.0001848,0.00070343,0.00014407,0.0005279,0.00085167,0.00092281,0.00024047,0.0010269,5.2742e-05,0.00084698,0.00083861,0.00059002,0.00091096,0.00096855,0.00056109,0.00065811,0.0012394,0.00070481,0.001236,0.0013461,6.676e-05,0.00030787,0.0015735,0.002306,0.0036233,0.0040494,0.004045,0.0011603,-0.00011579,-0.00018202,-0.0014302,-0.00082401,0.00045311,0.0022918,0.0054544,0.011024,0.0044436,-7.1462e-05,0.0018066,0.00049485,0.0010844,0.00061949,0.0010016,0.0010613,-0.00014443,-0.00081095,-4.8539e-05,-0.00018267,0.00096108,0.0034216,0.0053625,0.0072162,0.030013,0.047264,0.059849,0.052066,0.036477,0.032363,0.027066,0.042355,0.065182,0.063999,0.061249,0.056493,0.026888,0.0046384,0.0014153,0.00025678,0.0011107,0.0011176,0.0006818,0.00014099,-5.1537e-05,-3.9193e-05,0.0013576,0.0087524,0.021835,0.02512,0.055187,0.041115,0.051309,0.068233,0.072726,0.056268,0.036754,0.0099429,0.014022,-0.0036603,0.0264,0.044803,0.049559,0.082457,0.13151,0.065075,0.017912,-0.00083931,8.0083e-05,5.2881e-05,0.00029209,0.0007351,0.0012705,0.0011742,0.0042692,0.026289,0.038492,0.021415,0.060487,0.067706,0.066259,0.066371,-0.018543,-0.11149,-0.23742,-0.2633,-0.23238,-0.21007,-0.10637,-0.04151,-0.086207,-0.059092,-0.012408,0.044367,0.023131,0.01401,0.0088922,0.001284,0.00079646,0.0013538,0.0029549,0.00488,0.012226,0.029546,0.039093,0.050602,0.10277,0.14519,0.13477,0.037869,-0.083373,-0.16599,-0.26897,-0.29191,-0.2493,-0.20412,-0.064027,0.0070655,-0.031096,-0.081484,-0.10711,-0.022699,-0.0003071,0.037203,0.021706,0.00090383,0.00098804,0.00073923,-0.010512,-0.0091521,0.012533,0.062433,0.072001,0.13059,0.17946,0.16177,0.097825,0.0086729,-0.067428,-0.17334,-0.31493,-0.35638,-0.26753,-0.23409,-0.095993,-0.016347,0.055034,0.045575,-0.065485,-0.053703,0.021683,0.069337,0.035089,0.0017245,0.0010476,0.00047529,0.0027326,0.012404,0.015554,0.077247,0.12849,0.19667,0.17804,0.14024,0.12126,0.044136,-0.032393,-0.068671,-0.21499,-0.26283,-0.29202,-0.22601,-0.18363,-0.049986,0.094832,0.11702,-0.063835,-0.046396,0.036452,0.090414,0.043613,0.0042484,0.0010112,0.00081524,0.0089001,0.03485,0.023755,0.12124,0.16251,0.087753,0.098292,0.049245,0.070874,0.054906,0.080976,-0.014153,-0.13408,-0.18337,-0.19246,-0.23506,-0.25619,-0.098736,0.097817,0.086748,-0.049726,-0.071548,0.06482,0.14304,0.073969,0.007757,9.3301e-05,0.0026821,0.0086189,0.041464,0.064998,0.11503,0.13301,0.074562,0.10761,0.17746,0.20057,0.083879,0.027847,-0.091172,-0.17481,-0.24202,-0.23084,-0.22814,-0.23812,-0.17624,-0.12864,-0.016433,-0.04802,-0.082446,0.098959,0.17402,0.068776,0.0082897,0.00053547,0.0012809,0.02039,0.043369,0.075795,0.097668,0.065785,0.037441,0.18886,0.20945,0.08418,0.11867,0.058133,-0.092656,-0.21091,-0.079497,-0.059867,-0.016832,-0.010284,-0.13848,-0.20964,-0.1387,-0.10744,-0.10802,0.083652,0.20333,0.075836,0.0078534,0.00071731,0.00016166,0.033987,0.064923,0.022658,0.016602,-0.015146,0.059127,0.097898,0.13742,0.15084,0.15206,0.026248,-0.068865,0.0039846,0.18334,0.32469,0.40175,0.39991,0.15944,0.014477,0.0011001,-0.046646,-0.08064,0.044613,0.22701,0.080338,0.012002,0.00030955,0.0014884,0.047059,0.085003,-0.0093259,-0.08083,-0.082335,0.019316,0.10033,0.18146,0.10279,0.10408,0.093025,0.20162,0.41086,0.50041,0.56624,0.50284,0.49595,0.38511,0.19924,0.079051,0.0066683,-0.043534,0.02806,0.21836,0.082987,0.010909,0.00037549,0.0029803,0.067774,0.14134,-0.0037561,-0.16397,-0.038481,0.060162,0.1392,0.16856,0.20404,0.28068,0.39908,0.43358,0.52251,0.55532,0.55858,0.43593,0.42129,0.38606,0.24648,0.05407,0.039975,-0.055886,0.088833,0.20499,0.093944,0.012257,0.00057435,0.0014248,0.068971,0.12763,0.05751,-0.1329,-0.031387,0.017873,0.040821,0.13625,0.20461,0.40567,0.49562,0.49086,0.48068,0.45836,0.3847,0.21172,0.19847,0.23326,0.078249,0.083767,0.023767,-0.041538,0.12218,0.16713,0.078789,0.013276,0.00072831,0.0021774,0.065984,0.10492,0.16043,-0.0075135,0.0030938,-0.015311,-0.094851,-0.037902,0.066085,0.32583,0.40597,0.37074,0.25093,0.1981,0.12256,0.0084696,0.019467,0.10889,0.091312,0.073596,0.1258,-0.017079,0.13434,0.13976,0.061183,0.0059566,0.00083355,0.0022552,0.061013,0.15186,0.12267,-0.12433,-0.1983,-0.16721,-0.11717,-0.17634,-0.1917,-0.00044831,0.050338,0.050421,-0.089021,-0.029897,-0.086554,-0.095004,0.013205,0.11066,0.093734,0.13886,0.058503,0.0097161,0.11604,0.091212,0.028325,0.0054592,0.00038611,0.001981,0.055066,0.15572,0.10454,-0.16452,-0.25054,-0.28592,-0.1985,-0.28881,-0.35335,-0.20876,-0.12066,-0.11706,-0.12076,-0.072916,-0.10755,-0.038922,0.10117,0.1452,0.096792,0.068133,0.058155,0.058983,0.083075,0.053384,0.019123,0.0027042,4.0698e-05,0.00066235,0.044206,0.10508,0.11076,-0.040226,-0.19645,-0.13795,-0.054731,-0.18421,-0.2571,-0.2255,-0.11723,0.011981,-0.031961,-0.0071566,-0.030739,0.069878,0.11536,0.10675,0.089698,0.10403,0.043797,0.10281,0.074729,0.049317,0.011136,-0.00051958,0.00023065,0.00074373,0.029659,0.068458,0.12079,0.093737,-0.052916,0.036422,0.03563,-0.010429,-0.18032,-0.18811,-0.066525,-0.0034303,-0.019901,-0.0508,-0.028303,0.031025,0.12146,0.071622,0.10856,0.091635,0.089837,0.14343,0.090931,0.065525,0.020193,0.0010734,0.0011249,0.0018105,0.016653,0.0662,0.084359,0.094131,-0.023243,0.0097084,0.059208,-0.013467,-0.18039,-0.25276,-0.1513,-0.088535,-0.080779,-0.047007,-0.063627,-0.023515,-0.0071768,0.010281,0.012937,0.059597,0.081739,0.083725,0.071093,0.052582,0.028061,0.0015803,0.00030388,0.0012651,0.0073706,0.06441,0.081062,0.15051,0.053811,0.025195,0.049842,-0.008679,-0.20515,-0.25476,-0.2589,-0.21931,-0.1118,-0.13606,-0.091793,-0.080578,-0.00078456,-0.0067588,0.062315,0.05365,0.039721,0.049948,0.030557,0.021039,0.0061772,0.0027467,9.4534e-06,0.00095029,0.0028762,0.022271,0.086686,0.14331,0.17359,0.15007,0.090412,0.040958,-0.12547,-0.18662,-0.22211,-0.23101,-0.16184,-0.10371,-0.052883,0.005012,0.026859,0.051001,0.067381,0.046423,0.022898,0.015559,0.014863,0.011222,0.00088673,0.00092421,0.00092478,0.0010862,0.00095818,0.0036141,0.064475,0.10902,0.2118,0.29149,0.27518,0.1879,0.055918,-0.082085,-0.15384,-0.1314,-0.076703,-0.057747,-0.00018939,0.018483,0.035292,0.035437,0.037735,0.023294,0.015357,0.016303,0.0111,0.0085987,0.0014759,0.0010234,0.0011517,0.00024491,9.9036e-05,0.0051856,0.027628,0.059041,0.13554,0.20706,0.20418,0.1673,0.12239,0.060992,0.020522,0.011546,0.0088538,0.021873,0.019603,0.008458,0.0086123,0.0081136,0.003571,0.0025151,0.0021525,0.00097217,0.0011067,2.8969e-06,0.00017286,0.0010801,0.00077922,0.00055476,0.00037186,0.0023661,0.0011135,0.011507,0.063428,0.068513,0.048948,0.033455,0.063317,0.029236,0.0068951,0.0012419,0.00074434,0.0019496,0.0048854,0.003069,0.00048638,0.00020711,0.00047893,0.00021943,0.0009815,0.00063791,0.0007713,0.00033498,0.00040762,0.00014785,0.00061771,0.0012677,0.00052676,0.0010395,0.00069226,0.0050428,0.015644,0.0036932,0.0045616,0.003271,0.00098992,0.0012601,0.00012276,0.00017171,0.0011774,-3.5874e-05,0.00013839,0.00098699,0.0010446,0.0011795,0.0010777,0.0011333,0.0012737,0.00068161,0.00096646,0.00032219,0.0011882,0.00016343},
{0.0005886,0.00053402,0.00098627,0.0004205,0.0008436,0.00060063,0.00010099,6.4251e-05,0.0004543,0.00083168,0.00075276,0.00022854,0.00092461,0.00015771,-0.00070494,0.00073915,0.0011545,0.00014717,0.0010374,0.00051639,0.00067026,0.0011585,3.8275e-05,0.00072667,6.3067e-05,0.00099342,0.00099283,0.00056821,0.00030131,0.00071782,0.0011174,0.00091624,0.0010161,0.00045891,0.00028021,0.001828,0.00099728,0.0011295,0.0019257,0.0011999,0.00032063,0.0011425,0.0018914,0.0023447,0.002435,0.00080069,0.0005404,0.00029278,0.0019922,0.001691,0.00015394,0.00048345,0.00094693,0.00022424,0.0012536,0.00010599,0.00095145,0.00042644,0.00039053,0.00036648,-8.9565e-06,0.0009565,0.0052801,0.020453,0.0099356,0.0016768,0.0035228,0.0081259,0.0059664,0.0028767,0.0028567,0.0042506,0.011264,0.012946,0.011325,0.016089,0.011102,0.011884,0.010108,0.0027972,0.00061858,0.00098165,0.0009084,0.00089938,0.00087411,3.6496e-05,0.0006938,0.0010336,0.0018104,0.0038352,0.030611,0.089158,0.077554,0.046643,0.032817,0.025669,0.0036854,-0.002502,-9.8449e-05,0.0080861,0.028376,0.082275,0.15919,0.22007,0.21101,0.15082,0.089677,0.029737,-0.00056624,-0.0083347,0.00099499,0.0011515,0.00018072,0.00028671,0.00056899,0.0011601,0.0063115,0.021795,0.091852,0.14196,0.13924,0.081752,-0.0065925,-0.035315,-0.065507,-0.087804,-0.027985,0.037846,0.11108,0.16706,0.23531,0.28506,0.3739,0.32532,0.22795,0.11855,0.039824,0.0031265,0.0013178,0.00040579,0.00062941,0.00056083,0.0010986,0.0010205,0.031284,0.092895,0.1607,0.18043,0.15716,0.034218,-0.077617,-0.2164,-0.28041,-0.2864,-0.19742,-0.037578,0.094844,0.12385,0.17908,0.23505,0.25005,0.30476,0.29786,0.19908,0.10023,0.015375,0.0030685,0.0011358,0.00021729,0.00049782,0.00051066,0.001733,0.056245,0.13767,0.18056,0.15897,0.11955,-0.051965,-0.23523,-0.46857,-0.57719,-0.43547,-0.27413,-0.10095,0.022656,-0.010508,0.0096355,0.093424,0.22546,0.22741,0.24184,0.2728,0.15094,0.017819,0.00083262,0.00091958,0.0010053,-0.0009337,-0.0031435,0.029941,0.11767,0.17776,0.16344,0.12726,0.068417,-0.11299,-0.43569,-0.71664,-0.74103,-0.43407,-0.1494,-0.087715,-0.036365,-0.042174,-0.047713,0.061878,0.16234,0.10546,0.17745,0.13318,0.12672,0.011203,-0.00027949,0.00036963,0.0012556,-0.0019217,-0.010056,0.02023,0.20837,0.21833,0.22244,0.065415,-0.03751,-0.21392,-0.49076,-0.79945,-0.64412,-0.26165,0.010701,-0.011954,-0.12084,-0.14837,-0.07322,-0.061649,0.028334,0.16887,0.084487,0.039601,0.039864,0.044704,-0.0052834,0.00099135,0.00051252,-0.0017725,-0.021576,0.030394,0.21713,0.2899,0.20921,0.0017203,-0.058575,-0.20775,-0.62925,-0.8584,-0.49209,-0.11012,0.042585,-0.052283,-0.17383,-0.24583,-0.20035,-0.031012,0.091984,0.054129,0.13296,0.087451,0.044158,0.044301,-0.0098283,-3.5153e-05,0.0010751,-0.0027022,-0.040194,0.042599,0.29398,0.25987,0.11056,0.00074706,0.010254,-0.26197,-0.70432,-0.73822,-0.44748,-0.23699,-0.20713,-0.20962,-0.16414,-0.32773,-0.21245,-0.077435,-0.070713,-0.096571,-0.028208,-0.043067,0.036431,0.062582,-9.8942e-05,0.00011614,0.0001751,-0.0075682,-0.025386,0.124,0.31112,0.11222,0.13053,0.10396,-0.071546,-0.40748,-0.72385,-0.50064,-0.35471,-0.3277,-0.30173,-0.18184,-0.092472,-0.22436,-0.20009,-0.18105,-0.16972,-0.21618,-0.21245,-0.21698,0.047372,0.081587,0.005649,0.00032449,0.00011133,-0.006643,-0.017759,0.15498,0.24371,0.14893,0.23279,0.31247,0.028434,-0.41126,-0.75235,-0.55605,-0.35083,-0.27609,-0.17523,-0.1159,0.036376,-0.10504,-0.08853,-0.11093,-0.29673,-0.31317,-0.29834,-0.40931,0.011534,0.11679,0.0028816,0.00094014,-0.00061747,-0.0061683,-0.0051357,0.18561,0.25603,0.14416,0.26315,0.21609,0.071774,-0.18398,-0.48978,-0.53482,-0.42002,-0.074587,-0.032419,0.043537,0.12768,0.088932,-0.032292,-0.10973,-0.2595,-0.25874,-0.33185,-0.30514,0.05402,0.042166,-0.0080108,0.0007756,0.00096543,-0.00516,0.0016292,0.18939,0.11949,0.078856,0.18708,0.03535,0.19869,0.21679,0.023438,-0.092534,-0.11592,0.056372,-0.006986,0.056531,-0.0035716,-0.024306,-0.037242,-0.070771,-0.088147,-0.10539,-0.27683,-0.26282,-0.026431,0.01293,-0.0047764,0.0015195,0.00019217,0.0012768,0.024232,0.23115,0.11599,0.19936,0.11816,0.027111,0.26102,0.51542,0.49814,0.34968,0.078024,-0.0024466,-0.0011635,0.022969,-0.095687,-0.18196,-0.069137,0.048543,0.15462,0.0010503,-0.23089,-0.16966,-0.10422,-0.015247,-0.00074927,0.0023022,0.00036162,0.0065936,0.0097382,0.23566,0.1001,0.14181,0.17114,0.039296,0.072506,0.43944,0.61571,0.33453,0.1309,0.067276,0.1727,0.14264,-0.013404,-0.15759,0.0057513,0.13436,0.2377,0.05487,-0.05976,-0.091585,-0.093694,-0.024301,0.0014914,0.0019453,0.00081494,-0.0024365,-0.011582,0.075586,-0.032006,-0.0076805,0.10629,0.10879,0.15884,0.34302,0.42866,0.25874,0.084495,0.13102,0.15994,0.17247,0.0050227,0.0082504,0.082325,0.18898,0.20496,0.076116,-0.029343,-0.04187,-0.11101,-0.05385,0.0022584,-8.9957e-05,0.00096059,-0.00073109,-0.020389,0.0086936,0.036776,-0.047082,0.071997,0.084043,0.17327,0.28834,0.38492,0.25032,0.13277,0.066865,0.2065,0.098599,0.010746,-0.0012244,0.07486,0.17265,0.17989,0.089567,0.02794,0.082849,-0.1039,-0.019035,0.0010497,-0.00072989,0.00064058,-0.0011615,-0.022078,-0.033476,-0.071756,-0.079806,-0.12321,0.0070317,0.14033,0.23439,0.26464,0.23971,0.036664,-0.015407,0.1361,0.099893,0.065404,0.13935,0.16094,0.21168,0.19648,0.17056,0.11234,0.038194,-0.095046,0.0038974,-0.00026885,-1.1416e-05,0.0011035,-0.0050954,-0.022353,-0.067485,-0.098333,-0.098418,-0.030571,-0.044677,0.058149,0.10205,0.11417,0.13876,0.0052959,-0.12599,-0.042358,0.10602,0.07283,0.017147,0.13628,0.24707,0.2341,0.074759,0.029214,0.0012659,-0.044074,0.011694,-0.0025692,0.00048889,0.0010269,-0.0062831,-0.024345,-0.084691,-0.1134,-0.073367,-0.081799,-0.13098,-0.071536,-0.11307,-0.054983,-0.15841,-0.17024,-0.15214,-0.068173,0.058791,0.10973,0.11177,0.24526,0.23518,0.15225,0.044673,0.019852,0.026727,-0.023904,-0.0056748,-0.0023009,0.00056533,0.0010973,0.00029524,-0.011082,-0.070448,-0.14815,-0.14497,-0.21929,-0.21417,-0.23954,-0.27976,-0.20786,-0.21648,-0.24132,-0.24579,-0.14892,-0.055637,0.081035,0.13361,0.16157,0.12461,0.087928,0.078953,0.054469,0.024438,-0.014737,-0.0069435,0.00077156,0.00073055,0.000158,0.00072911,-0.0036477,-0.046356,-0.14108,-0.20365,-0.29694,-0.36317,-0.53857,-0.41481,-0.19193,-0.17015,-0.21895,-0.26045,-0.20645,-0.091228,-0.016561,0.033732,0.10433,0.1002,0.1028,0.069207,0.027421,0.0030788,0.0041647,-0.0013317,0.00093486,0.00011312,0.00044164,0.00011346,-0.00070994,-0.016732,-0.061925,-0.11485,-0.18819,-0.27802,-0.35154,-0.26268,-0.085232,-0.060548,-0.070505,-0.093416,-0.096462,-0.049472,0.01283,0.093709,0.1148,0.11086,0.12858,0.073562,0.025785,0.0022552,0.0026239,-0.00017672,0.00021843,0.00091828,0.00038118,0.00011742,0.0008612,0.00034937,-0.0019652,-0.015637,-0.042295,-0.064069,-0.12029,-0.077057,-0.023493,0.0033265,0.01826,0.02335,0.034176,0.03835,0.065455,0.086346,0.07631,0.083577,0.068814,0.032757,0.0055981,0.0003038,0.0011451,0.001054,4.4733e-05,0.00077963,0.0010779,0.00058311,0.0010499,0.00016048,0.00065624,-0.0024576,-0.0038164,-0.0030996,-0.007393,-0.007963,0.0010558,-0.0027426,0.0046883,0.01167,0.024084,0.028949,0.023832,0.037953,0.022564,0.026553,0.01416,0.0061556,0.0016996,0.00058509,0.00025136,0.0012609,0.00089018,0.00055139,0.00075605,0.00086184,0.00051275,0.00084506,0.00026691,0.00011324,0.00052688,-5.9662e-05,-0.0010336,0.00036476,0.00082907,0.00089664,9.0642e-05,0.00026091,0.0010357,0.00052451,0.0012953,0.0034365,0.0027441,0.0024352,0.00051284,0.00086754,0.00030634,0.00064324,0.00050994,0.00075457,0.00096859,0.00085751},
{0.00011395,1.1366e-05,3.1801e-05,0.00081262,0.00064975,0.0005837,0.0003458,0.00012871,0.00055064,0.00029376,0.00086424,0.0010111,0.00030674,0.0011493,0.0007525,0.0011077,0.0011874,0.00085598,7.0911e-05,0.00069703,0.00098433,0.00094169,0.00069626,0.00071382,9.1408e-05,0.0010113,0.00063768,0.00062895,0.00068878,5.6549e-05,0.00083782,0.00072844,0.00076864,0.00052534,0.0009001,-0.00053521,-0.0001552,0.0020598,0.0023386,0.0019089,0.00076685,0.0038104,0.003779,-4.1241e-05,-0.00043922,0.00059325,0.00036648,0.0019127,0.00025562,0.0007343,0.00025635,0.0010013,0.00083513,0.00019324,0.00094373,0.0006592,0.00022354,0.0010218,0.001048,0.00063445,0.00014484,0.00064787,-6.6547e-05,0.00052449,-0.0004617,-0.00091223,5.0164e-06,0.00088526,0.0047762,0.0027798,0.0038603,0.00043852,-0.0063425,-0.0098421,-0.011054,-0.0068664,-0.0045981,-0.0041831,-0.00424,-0.0012993,0.0010663,0.0013088,0.00070852,0.00089524,0.00031984,0.0012695,-0.0013743,-0.0037952,0.00028919,-0.00047172,-0.0029318,-0.008314,-0.0073867,-0.0067283,-0.01165,-0.00076204,0.0075991,0.0064112,0.0099106,0.012316,-0.0092383,-0.028844,-0.039947,-0.039798,-0.030667,-0.015671,-0.010655,-0.0091575,-0.005193,-0.0021216,0.00076037,0.00045062,0.0011446,0.0010409,0.00031386,-0.00068584,-0.0042419,-0.0024361,-0.017877,-0.025552,-0.028269,-0.039158,-0.041269,-0.018844,-0.018702,-0.0028426,0.032897,0.032864,0.010113,-0.011905,-0.018418,-0.063089,-0.05757,-0.047942,-0.017635,-0.021072,-0.025505,-0.014616,-0.011517,0.00073683,0.00016767,9.1827e-05,0.00074079,0.00015506,-0.00084649,-0.0060114,-0.043834,-0.051168,-0.040581,-0.049819,-0.088396,-0.098854,-0.075743,0.0035632,0.08738,0.10576,0.055057,-0.024472,-0.036705,-0.089299,-0.10939,-0.07965,-0.041789,-0.049304,-0.055769,-0.04493,-0.016775,-4.2571e-05,0.0010897,0.00077908,0.0033092,0.0044834,-0.00025989,-0.015962,-0.016834,-0.028799,-0.030067,-0.12619,-0.1795,-0.17604,-0.062703,0.037848,0.12788,0.22477,0.1809,0.038823,-0.081896,-0.15911,-0.12317,-0.099005,-0.074697,-0.074394,-0.086432,-0.063528,-0.023517,0.0012205,0.00089512,0.00093017,0.00034395,0.0073255,-0.0011397,0.026098,0.077515,0.03689,-0.02059,-0.10284,-0.17801,-0.17924,-0.072711,0.014826,0.12634,0.23145,0.25991,0.13469,0.01424,-0.12317,-0.1299,-0.097856,-0.094036,-0.13254,-0.14622,-0.098425,-0.031234,0.0013231,0.00044086,0.00058394,0.0047498,0.013794,0.028317,0.06522,0.083682,0.0095763,-0.081363,-0.13888,-0.14977,-0.087407,-0.029635,0.0612,0.16223,0.16015,0.1461,0.1987,0.082254,-0.031722,-0.098509,-0.082826,-0.1373,-0.17273,-0.1482,-0.10147,-0.043243,0.00070607,0.00088199,0.0010672,0.0076271,0.028218,0.06999,0.11828,0.070964,-0.062609,-0.11059,-0.20091,-0.093584,-0.097175,-0.055305,0.031704,0.15274,0.14539,0.01963,0.1629,0.072509,0.025711,-0.053104,-0.032965,-0.1456,-0.16131,-0.11211,-0.12631,-0.049984,-0.0034604,0.00059205,0.00079252,0.0059716,0.030559,0.051721,0.07044,-0.015971,-0.19973,-0.21176,-0.18912,-0.092992,-0.034731,-0.058476,0.010263,0.13968,0.166,0.021505,0.11434,0.080089,0.045023,0.033521,0.0031556,-0.13356,-0.17894,-0.13254,-0.13356,-0.071873,-0.0062129,0.00017432,0.00054096,0.014027,0.014379,0.071129,0.03961,-0.11797,-0.28829,-0.26407,-0.17276,-0.23283,-0.22584,-0.074684,0.13781,0.17675,0.23012,0.063907,0.13583,0.15412,0.077806,0.091794,0.03289,-0.1614,-0.19032,-0.11317,-0.16164,-0.076611,-0.0036771,0.00040997,0.00021048,0.019239,0.016525,0.042679,-0.002266,-0.18433,-0.41529,-0.2567,-0.16689,-0.21353,-0.22337,-0.037972,0.073998,0.22099,0.18083,0.26234,0.32098,0.36864,0.16932,0.12644,0.0063402,-0.222,-0.27283,-0.16531,-0.25541,-0.11579,-0.013421,0.0011114,0.0009865,0.026461,0.043577,0.052296,-0.020588,-0.38447,-0.47957,-0.27722,-0.19451,-0.20128,-0.25828,-0.10729,0.10752,0.2729,0.36752,0.52913,0.51591,0.43487,0.27305,0.15415,0.046251,-0.15726,-0.29818,-0.21784,-0.23051,-0.10985,-0.0090195,0.00051033,0.0021702,0.046201,0.050572,0.068419,0.075595,-0.44202,-0.54837,-0.37789,-0.29493,-0.21332,-0.18537,-0.10601,0.10346,0.23082,0.47992,0.56503,0.51752,0.34243,0.20104,0.21672,0.08003,-0.09802,-0.21648,-0.15031,-0.21965,-0.13423,-0.022132,0.00059353,0.0009414,0.049429,0.056076,0.018005,0.095832,-0.34628,-0.55989,-0.4232,-0.36084,-0.2454,-0.062903,0.065359,0.17434,0.1475,0.25432,0.43216,0.27673,0.17537,0.22883,0.21437,0.11411,-0.032254,-0.11926,-0.12917,-0.22809,-0.12397,-0.0064116,0.00064491,0.001021,0.048388,0.062079,0.017902,0.18034,-0.21945,-0.47761,-0.47203,-0.32494,-0.23245,0.038559,0.096099,0.078929,0.098324,0.2008,0.1783,0.037942,0.13146,0.16917,0.21101,0.08209,-0.011375,-0.056882,-0.18705,-0.26971,-0.11604,0.00032302,0.00012983,0.0014057,0.044348,0.069632,0.012667,0.14697,-0.15914,-0.31652,-0.34237,-0.31943,-0.20769,-0.067409,-0.0026025,0.096293,0.12546,0.13148,0.12263,0.033998,-0.009431,0.084857,0.13648,0.10783,0.11528,0.033759,-0.12413,-0.27529,-0.0932,-0.0027244,0.0012032,0.00077211,0.043161,0.083753,0.087286,0.17665,-0.097077,-0.2732,-0.33987,-0.25561,-0.16758,0.017992,0.055017,0.036819,0.13782,0.12855,0.086284,0.027896,-0.0099144,0.081115,0.12194,0.1018,0.10974,-0.0061069,-0.05843,-0.20668,-0.099679,-0.0086621,0.0010833,0.000201,0.031181,0.094429,0.16201,0.15695,-0.023414,-0.18435,-0.24525,-0.19977,-0.11478,-0.089037,-0.0079767,0.07628,0.14259,0.074733,0.064728,-0.022998,-0.055998,-0.017029,-0.0012922,0.014349,0.046255,-0.01693,-0.031537,-0.14028,-0.067086,-0.012893,9.1098e-05,0.00019349,0.028876,0.095013,0.21325,0.16568,0.048589,-0.19891,-0.24932,-0.28989,-0.25109,-0.15249,-0.092431,0.063283,0.12005,0.023164,0.047332,-0.013085,0.0011362,0.038105,0.013457,-0.024984,-0.030403,-0.021623,-0.078935,-0.10294,-0.036058,-0.0034123,0.00070854,0.0011258,0.020992,0.078429,0.15757,0.15971,0.03508,-0.12752,-0.25342,-0.29876,-0.23663,-0.16703,-0.053284,0.051842,0.082132,0.081108,0.092596,0.042149,0.046939,0.083902,0.057808,0.0189,-0.01104,-0.051506,-0.093117,-0.091978,-0.0331,0.0001819,0.0010243,0.0011733,0.008641,0.059592,0.0837,0.12847,0.087235,-0.029858,-0.19785,-0.29555,-0.29941,-0.15584,-0.033434,0.050417,0.095855,0.093451,0.080952,0.070612,0.05497,0.0626,0.069528,0.042559,-0.019705,-0.0233,-0.045775,-0.04531,-0.01825,0.00030552,0.00066616,0.00043622,0.0037187,0.032169,0.04035,0.07364,0.055331,-0.055949,-0.23121,-0.32892,-0.27207,-0.12768,-0.0065768,0.086408,0.10125,0.077165,0.11653,0.09515,0.11154,0.077617,0.066756,0.057663,0.0066568,-0.019428,-0.033832,-0.016703,-0.0066739,0.00042519,6.4568e-05,0.00059057,0.00098273,0.011887,-0.0114,0.013599,0.013826,-0.080685,-0.2112,-0.27339,-0.16357,-0.070487,0.0031679,0.044414,0.049902,0.046694,0.046634,0.063569,0.090965,0.091966,0.07703,0.049079,0.021485,-0.0021807,-0.014097,-0.0086581,0.00060459,6.0236e-05,0.00020545,0.0011229,0.00082686,0.0019049,-0.0060274,-0.0055954,-0.01669,-0.068681,-0.14198,-0.16148,-0.09729,-0.027931,0.014347,0.023404,0.020731,0.012205,0.011072,0.02017,0.035664,0.053113,0.036176,0.015415,0.0064349,0.00063803,0.00022261,0.0012045,0.00017975,0.0012532,0.00077628,0.00027047,0.00075507,0.00016693,-0.00036214,-0.0049703,-0.0015694,-0.016732,-0.026125,-0.034283,-0.022286,-0.0062697,0.002178,0.0025426,-0.0013296,-0.0014493,0.0047543,0.0059914,0.0053233,0.011839,0.011443,0.0022767,0.0011196,0.0010983,0.00025076,0.0007578,2.7096e-05,0.00058006,5.4389e-05,0.00010074,0.0010866,0.00027867,0.0010247,0.0010856,0.00015524,-0.00025355,-0.0016318,-0.0029405,-0.0013355,0.00057507,0.00068113,0.0010514,0.00037787,0.00099677,6.9309e-05,0.00029942,0.0011875,0.00070748,0.0010717,0.00093543,0.0011419,0.00066287,0.00026192,0.0010223,0.00072532,0.0011693},
{0.00072429,0.0011821,0.00010794,0.0012089,0.00034922,0.00029083,0.00072817,0.0011352,0.0004066,0.00075471,-5.5996e-06,0.00069979,0.00084752,0.00015118,4.3405e-05,0.0010849,0.0010624,0.0009425,0.0010509,0.00024512,0.00052759,0.00087726,0.00050362,0.00027717,1.8822e-05,0.00016007,0.000636,0.0006963,0.00059527,0.00062269,9.8902e-05,0.0011229,0.0013043,0.0011859,0.0012622,0.00036524,0.00085965,-0.00038801,-0.0013481,0.00028611,0.00084674,-0.002456,-0.0022314,0.0012185,0.00019724,0.00067962,0.00076157,0.00028006,0.00098181,-2.3068e-06,0.0004985,8.6668e-05,0.00066945,0.0003755,0.00026191,0.00040547,8.2802e-05,0.00094079,0.0001151,0.001054,0.00037636,0.00083505,0.00090161,0.0014571,-0.0034984,-0.002337,-0.0052663,0.00036077,0.0033088,0.001387,-0.000547,-0.00082284,-0.0035593,-0.0034004,0.0068718,0.010823,0.007755,0.0070051,0.0021988,0.00094404,0.0030015,0.00068211,0.001173,0.00062829,0.00083383,0.0011815,0.00048951,0.0014103,0.0011925,0.0017286,0.011845,0.010089,-0.0038737,0.001706,0.001213,0.0022813,-0.0043188,-0.0096624,-0.0014578,-0.018165,-0.019843,0.0043561,0.019884,0.015733,-0.0027485,-0.014706,-0.010549,-0.0032416,0.0054438,0.0013058,0.0002737,0.00091924,0.00038808,0.00040164,0.00097624,0.0014529,0.0028544,-0.00083718,0.0057923,-0.00069779,-0.019112,0.0087087,0.017723,0.030844,0.065372,0.061405,0.0033071,-0.012027,-0.015169,-0.021616,-0.0013361,0.014666,0.0028256,0.0083636,-0.0035838,0.0063675,0.031811,0.018439,0.026917,0.00092902,4.2037e-05,0.00062754,-0.00013565,-9.8964e-05,-0.007122,-0.0044861,-0.018004,-0.028515,-0.037516,0.0071208,0.095804,0.1642,0.19275,0.0457,-0.096139,-0.069531,-0.020306,-0.002719,-0.062199,-0.0065136,0.04252,0.054937,0.03394,0.02859,0.072441,0.095677,0.042888,0.0012674,0.001077,0.00026015,-0.0027921,-0.0035255,-0.014089,-0.032575,-0.080513,-0.11474,-0.063882,0.12389,0.27455,0.28108,0.13009,-0.029363,-0.16229,-0.23627,-0.21272,-0.19396,-0.17361,-0.035063,-0.0062381,0.026794,0.060333,0.078637,0.12165,0.13804,0.059678,0.00045081,6.4223e-05,0.00025388,0.0012292,-0.0058576,-0.020769,-0.066425,-0.15252,-0.18991,-0.12636,0.029096,0.22274,0.30616,0.099932,-0.097034,-0.25391,-0.3183,-0.27604,-0.19689,-0.18542,-0.047719,0.010424,0.061,0.081787,0.1968,0.2049,0.18485,0.063043,-0.00043911,0.00068027,0.00074065,-0.0028219,-0.01438,-0.040211,-0.11003,-0.12201,-0.14068,-0.036198,0.085739,0.2073,0.15974,0.030532,-0.088354,-0.27948,-0.29932,-0.094518,-0.070362,-0.070857,-0.051092,0.020148,0.066107,0.2138,0.32421,0.22119,0.21473,0.074425,-0.00060671,0.00053248,-6.3317e-05,-0.0078856,-0.018869,-0.053204,-0.19248,-0.16896,0.016489,0.12639,0.23861,0.10456,0.12546,0.10779,-0.081283,-0.32303,-0.3189,0.014118,0.012192,0.036688,-0.10647,-0.027862,0.058315,0.19978,0.22133,0.13481,0.24677,0.10234,0.0095272,0.00058866,-0.0012626,-0.0086709,-0.015282,-0.047529,-0.13232,-0.032768,0.26531,0.27683,0.2774,0.08089,-0.096089,-0.14409,-0.27059,-0.38116,-0.34109,0.0029886,0.082529,0.098556,-0.18702,-0.15011,0.064605,0.11491,0.15654,0.13679,0.26951,0.16382,0.014887,0.00041753,0.0008522,-0.013034,-0.015765,-0.1029,-0.12298,0.17807,0.43728,0.40193,0.083197,0.20321,0.049877,-0.41329,-0.70494,-0.53328,-0.37378,-0.09578,0.011815,-0.027179,-0.23785,-0.31883,-0.14591,0.057968,0.14876,0.071672,0.28776,0.17038,0.0060603,0.00080569,0.00064155,-0.017728,-0.016698,-0.071548,-0.029138,0.32678,0.70309,0.42008,0.21869,0.29479,0.061901,-0.43753,-0.58839,-0.45384,-0.17677,-0.26657,-0.10909,-0.26844,-0.40162,-0.43997,-0.18221,0.14015,0.25707,0.16097,0.39332,0.23671,0.028873,0.0010001,0.00059686,-0.02319,-0.024077,-0.038993,0.12675,0.59174,0.70063,0.51884,0.51288,0.39607,0.27821,-0.022477,-0.26602,-0.19326,-0.17309,-0.44694,-0.33911,-0.41052,-0.47038,-0.30981,-0.17248,0.096992,0.33261,0.21801,0.29629,0.21962,0.017846,0.0012424,-0.0013335,-0.034604,-0.038667,-0.015006,-0.048328,0.69708,0.86864,0.63547,0.71511,0.49239,0.40566,0.31935,0.085473,0.032992,-0.26945,-0.49856,-0.45712,-0.28495,-0.29129,-0.27719,-0.1422,0.072378,0.22285,0.094278,0.27485,0.2618,0.041871,0.0006804,-0.00071348,-0.031099,-0.043195,-0.035399,-0.14389,0.59234,0.94863,0.66343,0.61616,0.35863,0.15903,0.014583,-0.044348,-0.02085,-0.22189,-0.54033,-0.3017,-0.25621,-0.41578,-0.36511,-0.22923,-0.088048,0.088041,0.11615,0.35801,0.252,0.015864,0.00015258,2.8803e-05,-0.032552,-0.0869,-0.046586,-0.26892,0.43344,0.92412,0.73031,0.2079,-0.044634,-0.14222,-0.14532,-0.13515,-0.18377,-0.3649,-0.36281,-0.2701,-0.3433,-0.27412,-0.25787,-0.14483,-0.083726,0.049831,0.28534,0.4538,0.22466,0.0019773,0.00023619,-0.00031063,-0.030968,-0.084704,-0.088064,-0.23297,0.32452,0.6591,0.49334,0.14301,0.074896,0.22632,0.24156,-0.018219,-0.17017,-0.23463,-0.29365,-0.31682,-0.2108,-0.090884,-0.13325,-0.20851,-0.23526,-0.081098,0.17577,0.43845,0.17604,0.0062195,0.0010974,-0.00038047,-0.026503,-0.10065,-0.13041,-0.19282,0.2331,0.47723,0.38703,0.13695,0.13438,0.13104,0.21448,0.10862,-0.17817,-0.31728,-0.37353,-0.16527,-0.028719,-0.10467,-0.25062,-0.22975,-0.21205,-0.047105,0.12608,0.38046,0.18668,0.020284,0.00087649,0.00022196,-0.023241,-0.093505,-0.13946,-0.11173,0.14295,0.31994,0.18978,-0.087241,-0.055596,0.24327,0.24929,0.079522,-0.14765,-0.21539,-0.27354,0.00016989,0.14515,0.081244,-0.024708,-0.083813,-0.14737,-0.0062647,0.13542,0.27557,0.11236,0.027899,0.00071178,0.00027363,-0.01333,-0.070748,-0.15364,-0.1275,0.0080979,0.24644,0.10081,0.030005,0.15682,0.34569,0.37019,0.10838,-0.097128,-0.17646,-0.24234,0.057441,0.096796,0.017652,-0.046816,-0.059796,-0.029117,0.0054847,0.1893,0.23037,0.071363,0.008449,0.00010453,0.00044515,-0.0091464,-0.045,-0.11803,-0.16078,-0.10915,0.044415,0.063127,0.024583,0.18579,0.33727,0.22473,0.024877,-0.038561,-0.17337,-0.2187,-0.031816,0.014608,-0.059037,-0.088234,-0.070354,0.00028984,0.067576,0.16357,0.1672,0.077126,0.0005332,1.1718e-05,0.0004924,-0.00508,-0.044979,-0.058281,-0.16606,-0.27437,-0.18439,0.0047845,0.073533,0.21604,0.28505,0.16518,0.0078357,-0.12644,-0.2381,-0.22187,-0.15659,-0.1185,-0.11407,-0.098976,-0.062276,0.029572,0.064464,0.094459,0.083327,0.042052,0.00095868,0.00057244,0.00081893,0.00023723,-0.021583,-0.042174,-0.11435,-0.21629,-0.10943,0.031862,0.086347,0.1818,0.18918,0.10627,-0.038775,-0.12719,-0.11251,-0.20587,-0.21154,-0.2503,-0.2128,-0.16931,-0.08926,0.01451,0.072807,0.06755,0.043884,0.017769,0.0011737,0.00035143,0.00024178,0.00086891,-0.001176,0.0038126,-0.042386,-0.12868,-0.106,0.0022357,0.06221,0.05171,0.033993,-0.017664,-0.064491,-0.077678,-0.06214,-0.10696,-0.11044,-0.16931,-0.17144,-0.12323,-0.051565,0.003122,0.034923,0.044805,0.020425,0.002788,0.0004674,0.00081323,0.00030032,0.00041032,0.0025842,0.004448,-0.028323,-0.048704,-0.041993,-0.010632,0.026388,0.026581,0.030784,-0.00087121,-0.02185,-0.027655,-0.038546,-0.058754,-0.054388,-0.073336,-0.090845,-0.061033,-0.018646,-0.0025409,0.00051368,0.00057772,8.3009e-05,0.00089822,0.001148,0.0011816,0.00014262,0.00055291,0.00132,0.0012101,0.0024526,-0.016635,-0.016898,-0.0027605,0.011454,0.0013533,0.0051888,0.0068549,0.0044843,0.0016201,-0.0018109,-0.0093104,-0.014015,-0.01142,-0.025728,-0.021982,-0.0039294,8.2089e-05,0.0013128,0.0010199,0.00072675,0.00092579,0.00094768,0.00043453,0.00061836,0.00065851,0.0012281,0.00077317,-8.8095e-05,-0.0025232,0.0004471,-0.00078549,0.0032086,0.0028974,0.0010178,0.00061403,0.00027426,0.00072236,0.00027774,-0.0001514,-0.0021829,8.5173e-05,0.00068491,0.0001534,6.8222e-05,9.7512e-05,0.0012174,0.0011767,0.00043376,0.00091367,0.00061901},
{0.0012248,0.0011273,0.00065856,1.4616e-05,0.0011456,8.1691e-05,0.00090247,0.0004169,0.00035077,0.00045423,0.00084321,2.0444e-05,0.00030899,0.00102,0.00021637,0.00021867,0.00016072,0.001069,0.00098789,0.00055043,0.00059968,0.00051824,0.00013128,0.00028631,0.00022117,8.906e-05,0.00092375,0.0012063,0.00014275,0.00058483,0.0010724,0.00038786,0.00018441,0.00091208,0.00092815,0.00059594,-4.0375e-06,-0.00059902,-0.00037022,-0.00011509,-0.00024843,0.001044,0.00052463,0.00022441,-1.7377e-06,0.00086999,0.0010374,-0.00012804,-3.4442e-05,3.1894e-05,0.00026484,0.0010085,0.0011467,0.0012272,0.00010595,0.0008642,0.00092491,0.00097943,0.00098989,-3.9561e-05,0.0010997,0.00026353,0.0011875,0.00056782,-0.0019784,-0.0011523,-0.002805,-0.0026586,-0.0016857,0.00014813,8.7233e-05,-0.0011149,-0.0026756,-0.0029441,-0.0022402,-0.0042883,-0.0031135,-0.00059045,-0.00094136,-0.00097499,-0.00074977,0.00065536,0.001235,0.00094954,0.0011574,3.0145e-05,0.00022076,0.0001723,0.0011088,0.0013798,0.0032133,-0.0021081,-0.015189,-0.015036,-0.017518,0.0042107,0.020789,0.033329,0.036354,0.03473,0.0069679,-0.020901,-0.041147,-0.029744,-0.019745,-0.011687,-0.0075493,-0.0062522,-0.0033851,6.6946e-05,0.0010206,0.0010461,0.0011877,0.00098902,0.00074728,0.00060863,0.0012568,0.0021685,-0.0023237,-0.013945,-0.028571,-0.062146,-0.051369,0.0062285,0.049217,0.097441,0.1305,0.1153,0.032883,-0.04426,-0.073694,-0.085712,-0.070528,-0.039926,-0.012655,-0.01141,0.0053545,0.014074,0.0072734,0.00058353,0.00079725,0.00028466,7.2716e-05,-0.001756,-0.00081049,-0.0076006,-0.02326,-0.056145,-0.090437,-0.091446,-0.06804,-0.013115,0.061206,0.1562,0.2156,0.20031,0.12004,0.044975,-0.041041,-0.1227,-0.14457,-0.10462,-0.065792,-0.017675,0.036001,0.043746,0.012638,0.00068946,0.00073524,-0.0061853,-0.0082649,-0.011553,-0.031465,-0.045392,-0.045681,-0.071719,-0.083829,-0.098055,-0.094236,-0.012418,0.11559,0.25279,0.28038,0.31382,0.19866,0.080791,-0.055386,-0.20939,-0.24253,-0.2167,-0.12132,0.0031312,0.062911,0.065506,0.011734,-0.0006901,0.00089302,-0.020074,-0.019068,-0.025564,-0.046599,-0.049863,-0.044183,-0.052141,-0.084833,-0.11104,-0.13475,-0.061776,0.065632,0.28625,0.28195,0.23636,0.20611,0.081854,-0.050912,-0.293,-0.37433,-0.28871,-0.12719,0.011177,0.081637,0.09034,0.00052784,-0.00025414,0.00080773,-0.018711,-0.031873,-0.063055,-0.068981,-0.018967,-0.037954,-0.12443,-0.13531,-0.17399,-0.063772,0.03665,0.19181,0.31833,0.26327,0.23625,0.24764,0.076437,-0.11215,-0.40113,-0.50004,-0.36708,-0.1185,0.030456,0.085035,0.10978,0.00087367,0.00063278,0.0011019,-0.0084879,-0.039053,-0.090903,-0.10701,-0.063096,-0.089112,-0.1218,-0.10897,-0.049358,0.12952,0.2131,0.30019,0.27405,0.20731,0.12184,0.019134,0.040195,-0.11253,-0.4253,-0.50317,-0.32711,-0.095581,0.085646,0.048098,0.059272,0.018004,0.0010451,1.533e-05,-0.016332,-0.07335,-0.12214,-0.13749,-0.096195,-0.086319,-0.047229,-0.10956,-0.0031986,0.093841,0.26219,0.35384,0.34379,0.12832,-0.026026,-0.10714,-0.0098536,-0.21086,-0.42225,-0.45352,-0.32398,-0.13778,0.056519,0.057822,0.037308,0.023768,0.00066633,0.00092257,-0.0078311,-0.067402,-0.15242,-0.15988,-0.10083,-0.043964,-0.12948,-0.17364,-0.036487,0.12915,0.27591,0.37317,0.25216,-0.016117,-0.083373,-0.087071,-0.065279,-0.24594,-0.42263,-0.45112,-0.34154,-0.1019,-0.017706,0.0038277,0.036221,0.013971,0.00034542,-0.0026207,-0.023954,-0.097894,-0.19614,-0.22809,-0.21419,-0.090044,-0.13369,-0.11662,0.080492,0.14395,0.17267,0.18786,-0.036646,-0.13257,-0.21423,-0.085534,0.0073641,-0.15955,-0.4906,-0.49624,-0.31921,-0.099589,-0.10333,-0.10888,0.039785,0.025258,-0.00071739,-0.0063828,-0.030187,-0.11185,-0.22544,-0.25152,-0.30578,-0.16087,-0.070416,-0.036749,-0.00041313,-0.023254,-0.050658,0.032843,-0.10794,-0.17287,-0.28562,-0.1624,0.13733,0.052756,-0.25752,-0.37529,-0.25729,-0.090293,-0.12334,-0.12006,0.0094719,0.036514,-0.00078036,0.0007035,-0.020892,-0.11669,-0.23673,-0.28309,-0.31363,-0.083567,-0.0056848,-0.090958,-0.14194,-0.15816,-0.062322,0.0058157,-0.052202,-0.2111,-0.2669,-0.061925,0.1824,0.16434,-0.13711,-0.32377,-0.27172,-0.16428,-0.15373,-0.16597,-0.028768,0.051693,-0.001809,0.001205,-0.018324,-0.11337,-0.25533,-0.27175,-0.25652,-0.087287,0.015369,-0.022504,0.0068983,0.090039,0.29094,0.30175,0.13464,0.0098471,-0.0099548,0.097382,0.26287,0.06529,-0.20169,-0.2198,-0.20695,-0.17119,-0.17876,-0.17285,-0.047885,0.013455,-0.0030945,0.00010375,-0.026094,-0.095964,-0.17432,-0.19662,-0.26874,-0.15113,0.018432,0.054093,0.14568,0.24704,0.41227,0.35638,0.30557,0.27964,0.27858,0.23337,0.14039,-0.097496,-0.31935,-0.21852,-0.20848,-0.15224,-0.069828,-0.094876,-0.031707,0.0068905,-0.0023793,0.00079688,-0.014372,-0.061156,-0.1108,-0.19428,-0.29363,-0.10604,0.036319,0.12627,0.24467,0.29836,0.34558,0.29638,0.33124,0.41771,0.37716,0.335,0.081613,-0.20129,-0.29577,-0.24482,-0.19112,-0.11833,-0.062737,-0.049545,-0.015649,0.017518,-0.00019795,0.00039092,-0.017984,-0.073669,-0.071607,-0.1375,-0.18842,-0.081951,0.045746,0.12868,0.18153,0.23045,0.23467,0.17941,0.18619,0.26309,0.34178,0.34209,0.086323,-0.17002,-0.2641,-0.26847,-0.15645,-0.063501,0.0054667,0.0007522,0.017717,0.018771,0.0029124,0.00047896,-0.02001,-0.042142,-0.04663,-0.060552,-0.12337,-0.092777,-0.018058,0.052789,0.1052,0.15614,0.08645,0.10004,0.071445,0.26815,0.31358,0.1695,-0.071208,-0.12995,-0.19534,-0.17355,-0.1223,0.00029441,0.048082,0.043363,0.03929,0.019366,0.0015576,2.1524e-05,-0.0095624,-0.025205,-0.061869,-0.029907,-0.037802,-0.066868,-0.051639,-0.0048205,0.036341,0.066846,0.058808,0.028183,0.12093,0.1749,0.094812,0.028848,-0.17202,-0.15036,-0.21909,-0.18162,-0.08,0.017068,0.097322,0.09143,0.043654,0.022342,0.0017289,0.0010466,-0.0073098,-0.027012,-0.040883,-0.002086,0.0014356,-0.019808,0.0039696,0.053558,0.051885,0.074631,0.032571,-0.0098828,0.019404,-0.042422,-0.03214,-0.015223,-0.13772,-0.18768,-0.18022,-0.11086,-0.047947,0.034308,0.10661,0.095401,0.061973,0.02351,0.0016483,0.001021,-0.00084421,-0.01611,-0.02217,0.030094,0.070481,0.049201,0.048615,8.8299e-05,-7.6959e-05,-0.01449,-0.058207,-0.087562,-0.056819,-0.06639,-0.10497,-0.12386,-0.17424,-0.23857,-0.22343,-0.135,-0.044785,0.033266,0.070752,0.05103,0.031165,0.0056153,0.0030959,0.00099681,1.0925e-05,-0.0051344,-0.014112,0.041606,0.093203,0.1189,0.022967,-0.028139,-0.10995,-0.11872,-0.14845,-0.19521,-0.14251,-0.090473,-0.12392,-0.12146,-0.14332,-0.1813,-0.15385,-0.098538,-0.026917,0.023958,0.034367,0.015468,0.016509,0.001751,0.00088281,0.00077813,0.00035332,-0.0006725,-0.0035668,0.0070656,0.067115,0.056302,-0.044998,-0.087799,-0.11484,-0.096059,-0.1231,-0.1226,-0.073975,-0.053658,-0.085319,-0.089002,-0.10124,-0.093058,-0.067045,-0.028776,-0.01079,-0.0027939,-0.00017217,-0.0067515,0.00029525,0.00087968,0.00026685,0.00060955,0.0011652,0.0010171,-0.00022725,0.00035052,0.019592,0.023254,-0.028663,-0.089273,-0.072891,-0.042818,-0.01695,-0.0083354,-0.0041543,-0.0084504,-0.028085,-0.060342,-0.061788,-0.048511,-0.01592,-0.0051355,-0.0046586,0.00296,0.0017931,-0.0018203,0.00020953,0.00093618,0.0012689,0.00047513,0.00029396,0.00035866,0.00078188,0.00068406,-0.0024608,0.010323,-0.013421,-0.016155,-0.022442,-0.009058,0.0021538,-0.0043136,-0.0031582,-0.0045743,0.00076629,-0.0083896,-0.0088328,-0.004863,-0.0035083,-0.0029711,0.0013364,0.00078651,0.00052016,0.00044561,0.00060547,0.00010021,0.00068852,8.9027e-05,0.00025753,0.00030708,0.00026375,0.00027224,0.00044944,0.0014661,0.0015074,-0.0012773,-0.0030219,0.00036268,0.00063757,1.8605e-05,0.00065607,0.0011984,0.00013196,0.00066394,-0.00059394,0.0001204,0.00061606,0.00099227,0.00036242,0.0003783,0.00043652,0.0010225,0.00085845,0.00064649,0.0011786},
